{"learner":{"attributes":{},"feature_names":[],"feature_types":[],"gradient_booster":{"model":{"gbtree_model_param":{"num_parallel_tree":"1","num_trees":"200"},"iteration_indptr":[0,1,2,3,4,5,6,7,8,9,10,11,12,13,14,15,16,17,18,19,20,21,22,23,24,25,26,27,28,29,30,31,32,33,34,35,36,37,38,39,40,41,42,43,44,45,46,47,48,49,50,51,52,53,54,55,56,57,58,59,60,61,62,63,64,65,66,67,68,69,70,71,72,73,74,75,76,77,78,79,80,81,82,83,84,85,86,87,88,89,90,91,92,93,94,95,96,97,98,99,100,101,102,103,104,105,106,107,108,109,110,111,112,113,114,115,116,117,118,119,120,121,122,123,124,125,126,127,128,129,130,131,132,133,134,135,136,137,138,139,140,141,142,143,144,145,146,147,148,149,150,151,152,153,154,155,156,157,158,159,160,161,162,163,164,165,166,167,168,169,170,171,172,173,174,175,176,177,178,179,180,181,182,183,184,185,186,187,188,189,190,191,192,193,194,195,196,197,198,199,200],"tree_info":[0,0,0,0,0,0,0,0,0,0,0,0,0,0,0,0,0,0,0,0,0,0,0,0,0,0,0,0,0,0,0,0,0,0,0,0,0,0,0,0,0,0,0,0,0,0,0,0,0,0,0,0,0,0,0,0,0,0,0,0,0,0,0,0,0,0,0,0,0,0,0,0,0,0,0,0,0,0,0,0,0,0,0,0,0,0,0,0,0,0,0,0,0,0,0,0,0,0,0,0,0,0,0,0,0,0,0,0,0,0,0,0,0,0,0,0,0,0,0,0,0,0,0,0,0,0,0,0,0,0,0,0,0,0,0,0,0,0,0,0,0,0,0,0,0,0,0,0,0,0,0,0,0,0,0,0,0,0,0,0,0,0,0,0,0,0,0,0,0,0,0,0,0,0,0,0,0,0,0,0,0,0,0,0,0,0,0,0,0,0,0,0,0,0,0,0,0,0,0,0],"trees":[{"base_weights":[-1.8053962E-3,-1.4786999E0,1.7684561E0,-1.7732438E0,1.1052526E0,2.1880154E-1,1.8406503E0,1.7457846E0,-1.8043256E0,1.5748148E0,-8.8008344E-1,1.4409639E0,-4.1635376E-1,1.858629E0,1.1619283E-1,-1.7142857E0,1.9345157E0,-1.8252993E0,1.7071291E0,-6.589327E-1,1.8398232E0,-1.6195753E0,7.866508E-2,-1.4347826E0,1.66465E0,-1.5142018E0,3.9710146E-1,7.7287066E-1,1.8766645E0,1.0396975E0,-1.6056339E0,-2.5E-2,-8.947369E-2,-5.714286E-2,1.9834025E0,1.3957447E0,-1.8428011E0,1.84E0,-7.3913045E-2,3.114754E-1,-1.9047619E0,1.8612233E0,-4.9275362E-1,-1.6839135E0,7.5E-2,1.4024097E0,-1.2056075E0,-9.5061734E-2,7.333334E-2,7.5598085E-1,1.8571428E0,-1.6645702E0,5.915493E-1,-5.3061223E-1,9.869822E-1,-8.1942335E-2,1.6867863E0,1.7604812E0,1.9686371E0,1.4437087E0,-1.3E0,-1.7629629E0,1.1111112E0,2.5E-2,9.9443674E-2,9.088729E-2,-8.947369E-2,-6.0202565E-2,-9.483697E-2,-5E-2,9.710744E-2,-1.8023256E-2,9.324324E-2,2.0000001E-2,-9.731183E-2,5.5764705E-2,9.5352285E-2,-7.5E-2,7.6E-2,-8.820116E-2,5.151515E-2,5.4054055E-3,8.318841E-2,-9.431818E-2,9.25E-2,-5.6179776E-3,6.774194E-2,9.38754E-2,-5.555556E-2,-8.438819E-2,6.0000002E-2,7.333334E-2,-4.0000003E-2,-5.6307692E-2,1.8348625E-2,7.03125E-2,-1.5789473E-2,6.702127E-2,-3.2210525E-2,8.768719E-2,-6.25E-2,9.0513356E-2,4.995169E-2,9.865E-2,6.336997E-2,-2.777778E-2,8.004751E-2,-8.571429E-2,5.714286E-2,-9.686275E-2,4.7368422E-2,7.1428575E-2,-0E0],"categories":[],"categories_nodes":[],"categories_segments":[],"categories_sizes":[],"default_left":[0,0,0,0,0,0,0,0,0,0,0,0,0,0,0,0,0,0,0,0,0,0,0,0,0,0,0,0,0,0,0,0,0,0,0,0,0,0,0,0,0,0,0,0,0,0,0,0,0,0,0,0,0,0,0,0,0,0,0,0,0,0,0,0,0,0,0,0,0,0,0,0,0,0,0,0,0,0,0,0,0,0,0,0,0,0,0,0,0,0,0,0,0,0,0,0,0,0,0,0,0,0,0,0,0,0,0,0,0,0,0,0,0],"id":0,"left_children":[1,3,5,7,9,11,13,15,17,19,21,23,25,27,29,31,33,35,37,39,41,43,45,47,49,51,53,55,57,59,61,-1,-1,-1,63,65,67,69,-1,71,73,75,77,79,-1,81,83,-1,-1,85,87,89,91,93,95,97,99,101,103,105,107,109,111,-1,-1,-1,-1,-1,-1,-1,-1,-1,-1,-1,-1,-1,-1,-1,-1,-1,-1,-1,-1,-1,-1,-1,-1,-1,-1,-1,-1,-1,-1,-1,-1,-1,-1,-1,-1,-1,-1,-1,-1,-1,-1,-1,-1,-1,-1,-1,-1,-1,-1],"loss_changes":[1.1730299E5,1.8618152E4,2.2825977E3,2.4048125E3,2.3352454E3,7.06611E2,6.0428906E2,1.291864E2,1.606125E3,1.199935E3,3.4008655E2,2.0260449E2,5.357616E2,3.7642188E2,3.2327014E2,6.390953E-2,2.9835388E1,1.2223359E3,5.763614E1,2.6112476E2,9.129248E1,5.6867493E1,3.58276E2,3.391637E1,4.9189453E1,8.18067E1,1.8932169E2,2.4778719E2,1.9935938E2,1.2688794E2,3.2305893E1,0E0,0E0,0E0,4.7247314E-1,1.6119229E2,7.3916406E2,3.8204956E1,0E0,1.2801404E2,9.811676E0,5.9200684E1,3.7251595E1,5.960089E1,0E0,3.4916336E1,2.26063E2,0E0,0E0,2.732288E1,1.64729E1,1.7871033E1,2.2788733E1,7.244375E1,1.1583099E2,1.326227E2,3.232721E1,3.1647656E2,2.9882812E1,3.6491516E1,2.22E1,3.3721542E1,1.5873017E0,0E0,0E0,0E0,0E0,0E0,0E0,0E0,0E0,0E0,0E0,0E0,0E0,0E0,0E0,0E0,0E0,0E0,0E0,0E0,0E0,0E0,0E0,0E0,0E0,0E0,0E0,0E0,0E0,0E0,0E0,0E0,0E0,0E0,0E0,0E0,0E0,0E0,0E0,0E0,0E0,0E0,0E0,0E0,0E0,0E0,0E0,0E0,0E0,0E0,0E0],"parents":[2147483647,0,0,1,1,2,2,3,3,4,4,5,5,6,6,7,7,8,8,9,9,10,10,11,11,12,12,13,13,14,14,15,15,16,16,17,17,18,18,19,19,20,20,21,21,22,22,23,23,24,24,25,25,26,26,27,27,28,28,29,29,30,30,34,34,35,35,36,36,37,37,39,39,40,40,41,41,42,42,43,43,45,45,46,46,49,49,50,50,51,51,52,52,53,53,54,54,55,55,56,56,57,57,58,58,59,59,60,60,61,61,62,62],"right_children":[2,4,6,8,10,12,14,16,18,20,22,24,26,28,30,32,34,36,38,40,42,44,46,48,50,52,54,56,58,60,62,-1,-1,-1,64,66,68,70,-1,72,74,76,78,80,-1,82,84,-1,-1,86,88,90,92,94,96,98,100,102,104,106,108,110,112,-1,-1,-1,-1,-1,-1,-1,-1,-1,-1,-1,-1,-1,-1,-1,-1,-1,-1,-1,-1,-1,-1,-1,-1,-1,-1,-1,-1,-1,-1,-1,-1,-1,-1,-1,-1,-1,-1,-1,-1,-1,-1,-1,-1,-1,-1,-1,-1,-1,-1],"split_conditions":[-5.3797266E-3,1.5820426E0,-1.0022578E-2,-2.8180353E-2,1.436832E-1,-2.7312241E-2,6.4288867E-1,-9.2547274E-1,1.0416908E0,-1.00276E-2,-3.4347123E-3,-2.1464566E-2,-8.4845334E-2,-3.6177203E-2,-1.0499216E0,-3.297636E0,-3.6177203E-2,-4.2384666E-1,6.189062E-1,1.0286646E0,9.106955E-1,8.598501E-1,2.2910511E0,-1.573458E-1,1.5820426E0,-5.2249623E-3,-1.1598346E0,-5.3797234E-3,8.843235E-1,-3.7296996E-2,-3.1147113E-2,-2.5E-2,-8.947369E-2,-5.714286E-2,-6.2753403E-1,3.4957413E-2,-4.5414105E-1,-5.2379393E-3,-7.3913045E-2,-6.0508205E-3,-2.132304E-2,-1.0016939E-2,4.404477E-1,-7.450402E-1,7.5E-2,-1.001641E-2,-1.8241808E-2,-9.5061734E-2,7.333334E-2,-4.6434263E-3,-1.5282723E-1,9.2273253E-1,-9.673222E-2,-3.9195633E-3,2.5316566E-1,-2.5054166E-2,7.7403253E-1,4.155026E-1,9.106955E-1,-5.3797252E-3,1.2102431E-2,-5.028527E-3,-2.0127295E-1,2.5E-2,9.9443674E-2,9.088729E-2,-8.947369E-2,-6.0202565E-2,-9.483697E-2,-5E-2,9.710744E-2,-1.8023256E-2,9.324324E-2,2.0000001E-2,-9.731183E-2,5.5764705E-2,9.5352285E-2,-7.5E-2,7.6E-2,-8.820116E-2,5.151515E-2,5.4054055E-3,8.318841E-2,-9.431818E-2,9.25E-2,-5.6179776E-3,6.774194E-2,9.38754E-2,-5.555556E-2,-8.438819E-2,6.0000002E-2,7.333334E-2,-4.0000003E-2,-5.6307692E-2,1.8348625E-2,7.03125E-2,-1.5789473E-2,6.702127E-2,-3.2210525E-2,8.768719E-2,-6.25E-2,9.0513356E-2,4.995169E-2,9.865E-2,6.336997E-2,-2.777778E-2,8.004751E-2,-8.571429E-2,5.714286E-2,-9.686275E-2,4.7368422E-2,7.1428575E-2,-0E0],"split_indices":[11,16,40,8,51,8,4,37,17,40,39,47,33,3,17,23,3,16,4,45,23,17,36,34,16,38,17,11,42,23,52,0,0,0,13,23,23,38,0,12,47,40,22,42,0,40,7,0,0,43,13,17,14,43,35,8,51,51,23,11,6,44,23,0,0,0,0,0,0,0,0,0,0,0,0,0,0,0,0,0,0,0,0,0,0,0,0,0,0,0,0,0,0,0,0,0,0,0,0,0,0,0,0,0,0,0,0,0,0,0,0,0,0],"split_type":[0,0,0,0,0,0,0,0,0,0,0,0,0,0,0,0,0,0,0,0,0,0,0,0,0,0,0,0,0,0,0,0,0,0,0,0,0,0,0,0,0,0,0,0,0,0,0,0,0,0,0,0,0,0,0,0,0,0,0,0,0,0,0,0,0,0,0,0,0,0,0,0,0,0,0,0,0,0,0,0,0,0,0,0,0,0,0,0,0,0,0,0,0,0,0,0,0,0,0,0,0,0,0,0,0,0,0,0,0,0,0,0,0],"sum_hessian":[4.48645E4,2.4459E4,2.04055E4,2.19565E4,2.5025E3,9.085E2,1.9497E4,1.9175E2,2.176475E4,2.024E3,4.785E2,3.1025E2,5.9825E2,1.929575E4,2.0125E2,9.5E0,1.8225E2,2.1636E4,1.2875E2,2.145E2,1.8095E3,2.6975E2,2.0875E2,2.2E1,2.8825E2,2.5425E2,3.44E2,3.16E2,1.897975E4,1.3125E2,7E1,1E0,8.5E0,2.5E0,1.7975E2,1.165E2,2.15195E4,1.24E2,4.75E0,1.21E2,9.35E1,1.79325E3,1.625E1,2.6475E2,5E0,1.0275E2,1.06E2,1.925E1,2.75E0,5.125E1,2.37E2,2.375E2,1.675E1,1.3375E2,2.1025E2,1.6375E2,1.5225E2,8.395E3,1.058475E4,1.1225E2,1.9E1,6.65E1,3.5E0,1E0,1.7875E2,1.0325E2,1.325E1,1.6775E3,1.9842E4,4E0,1.2E2,8.5E1,3.6E1,1.5E0,9.2E1,1.0525E2,1.688E3,1.1E1,5.25E0,2.575E2,7.25E0,1.75E1,8.525E1,8.7E1,1.9E1,2.125E1,3E1,2.3575E2,1.25E0,2.36E2,1.5E0,1.025E1,6.5E0,8.025E1,5.35E1,1.59E2,5.125E1,4.6E1,1.1775E2,1.4925E2,3E0,7.8785E3,5.165E2,1.05175E4,6.725E1,8E0,1.0425E2,1.65E1,2.5E0,6.275E1,3.75E0,2.5E0,1E0],"tree_param":{"num_deleted":"0","num_feature":"53","num_nodes":"113","size_leaf_vector":"1"}},{"base_weights":[1.6980588E-4,-1.3068534E0,1.4166281E0,2.9275623E-1,-1.5844265E0,1.7288945E0,-1.852862E0,-5.802882E-1,1.4476731E0,-1.6717627E0,1.2762243E0,4.4678235E-1,1.8007324E0,-1.8668058E0,-7.4066675E-1,-1.2878902E0,1.3222789E0,1.5758082E0,-1.7479408E0,-7.1920145E-1,-1.8068405E0,1.6352677E0,-1.7783862E0,1.0079132E0,-4.0158683E-1,8.340185E-1,1.8242319E0,-1.8772007E0,-1.4766198E0,-1.3415557E0,8.4015405E-1,-1.5629352E0,2.0288955E-2,-5.6443995E-1,1.6107255E0,8.217856E-1,1.7654585E0,-2.4575412E-1,-9.386674E-2,-1.0474015E0,7.260243E-1,1.6194341E0,-1.8219973E0,-1.6008871E0,1.7702142E0,-1.8545154E0,5.4460842E-2,1.7072501E0,6.076344E-1,-1.7077986E0,8.662348E-2,1.0310738E0,-1.4145653E0,1.1867405E0,1.8364191E0,-9.440468E-2,-1.6676639E0,7.9449654E-1,-1.7835096E0,2.2663772E-2,-1.5266263E0,1.3899626E0,-5.3017575E-2,1.6673341E-2,-8.234716E-2,-7.6170385E-2,5.373003E-2,7.7796206E-3,-9.191193E-2,4.6791438E-2,9.4419844E-2,6.05649E-2,-7.077979E-2,-3.9858613E-3,9.103533E-2,-6.827053E-2,5.177601E-2,-7.268419E-2,-1.3754524E-2,-6.288512E-2,5.8309883E-2,-7.190847E-2,9.287994E-2,-9.290265E-2,-2.669521E-2,-8.856746E-2,3.312576E-2,-6.2490728E-2,8.915458E-2,-4.189306E-2,-9.41697E-2,3.603072E-2,8.965447E-2,-3.4080792E-2,5.479532E-2,-8.987232E-2,5.1197745E-2,-3.485551E-2,5.5787563E-2,7.194554E-2,5.0725555E-3,-9.194171E-2,-2.4414986E-2,-7.7191293E-3,7.3984995E-2,2.2636184E-3,9.2012614E-2,-8.758238E-2,-4.3929657E-3,-5.7564955E-2,7.674504E-2,-9.1193944E-2,-8.489309E-3,-8.940918E-2,-2.0120835E-2,8.1105486E-2,1.2787587E-2],"categories":[],"categories_nodes":[],"categories_segments":[],"categories_sizes":[],"default_left":[0,0,0,0,0,0,0,0,0,0,0,0,0,0,0,0,0,0,0,0,0,0,0,0,0,0,0,0,0,0,0,0,0,0,0,0,0,0,0,0,0,0,0,0,0,0,0,0,0,0,0,0,0,0,0,0,0,0,0,0,0,0,0,0,0,0,0,0,0,0,0,0,0,0,0,0,0,0,0,0,0,0,0,0,0,0,0,0,0,0,0,0,0,0,0,0,0,0,0,0,0,0,0,0,0,0,0,0,0,0,0,0,0,0,0,0,0],"id":1,"left_children":[1,3,5,7,9,11,13,15,17,19,21,23,25,27,29,31,33,35,37,39,41,43,45,47,49,51,53,55,57,59,61,63,65,67,69,71,73,75,-1,77,79,81,83,85,87,89,-1,91,93,95,97,99,101,103,105,-1,107,109,111,-1,113,115,-1,-1,-1,-1,-1,-1,-1,-1,-1,-1,-1,-1,-1,-1,-1,-1,-1,-1,-1,-1,-1,-1,-1,-1,-1,-1,-1,-1,-1,-1,-1,-1,-1,-1,-1,-1,-1,-1,-1,-1,-1,-1,-1,-1,-1,-1,-1,-1,-1,-1,-1,-1,-1,-1,-1],"loss_changes":[8.322367E4,1.0381258E4,2.2028605E4,3.4874478E3,4.9796055E3,1.8130117E3,2.7792969E1,2.6538247E3,6.124292E2,2.4862773E3,6.508531E2,4.984469E2,4.2210938E2,4.7617188E0,2.4828852E1,5.1687646E2,2.918191E2,2.0333496E2,1.0787964E1,1.1404148E3,8.8221484E2,2.3392896E2,1.5689957E1,1.7531537E2,2.6620914E2,1.9836569E2,1.3925781E2,9.7265625E-1,3.8276146E1,6.825409E0,9.297315E0,1.896394E2,4.09389E2,6.5979965E1,8.517139E1,2.5416107E2,1.16704834E2,9.649056E0,0E0,6.14115E2,3.9024902E2,5.7358963E1,7.8191016E2,9.549103E0,2.2002686E1,2.2372437E-1,0E0,1.8083252E1,2.5394327E2,2.9651062E1,2.465013E2,1.549815E2,1.3339157E1,1.3551028E2,1.2255078E2,0E0,1.2820099E1,1.1833416E1,2.745407E0,0E0,4.269665E0,1.2281399E0,0E0,0E0,0E0,0E0,0E0,0E0,0E0,0E0,0E0,0E0,0E0,0E0,0E0,0E0,0E0,0E0,0E0,0E0,0E0,0E0,0E0,0E0,0E0,0E0,0E0,0E0,0E0,0E0,0E0,0E0,0E0,0E0,0E0,0E0,0E0,0E0,0E0,0E0,0E0,0E0,0E0,0E0,0E0,0E0,0E0,0E0,0E0,0E0,0E0,0E0,0E0,0E0,0E0,0E0,0E0],"parents":[2147483647,0,0,1,1,2,2,3,3,4,4,5,5,6,6,7,7,8,8,9,9,10,10,11,11,12,12,13,13,14,14,15,15,16,16,17,17,18,18,19,19,20,20,21,21,22,22,23,23,24,24,25,25,26,26,27,27,28,28,29,29,30,30,31,31,32,32,33,33,34,34,35,35,36,36,37,37,39,39,40,40,41,41,42,42,43,43,44,44,45,45,47,47,48,48,49,49,50,50,51,51,52,52,53,53,54,54,56,56,57,57,58,58,60,60,61,61],"right_children":[2,4,6,8,10,12,14,16,18,20,22,24,26,28,30,32,34,36,38,40,42,44,46,48,50,52,54,56,58,60,62,64,66,68,70,72,74,76,-1,78,80,82,84,86,88,90,-1,92,94,96,98,100,102,104,106,-1,108,110,112,-1,114,116,-1,-1,-1,-1,-1,-1,-1,-1,-1,-1,-1,-1,-1,-1,-1,-1,-1,-1,-1,-1,-1,-1,-1,-1,-1,-1,-1,-1,-1,-1,-1,-1,-1,-1,-1,-1,-1,-1,-1,-1,-1,-1,-1,-1,-1,-1,-1,-1,-1,-1,-1,-1,-1,-1,-1],"split_conditions":[-4.9044755E-1,-9.982312E-2,3.6473773E0,-2.1553801E-2,-3.0809292E-1,-1.0020992E-2,-8.4845334E-2,8.843235E-1,9.705367E-1,-3.848712E-1,5.5941284E-1,-2.0887744E-2,-3.6177203E-2,8.4490144E-1,-5.0286385E-3,1.5820426E0,-1.1598346E0,8.400954E-1,-3.6962223E-1,8.843235E-1,-4.2384666E-1,-9.9609554E-1,-8.723063E-2,-2.8055234E-2,-1.7035892E-2,4.979981E-1,-1.0017467E-2,2.1945465E0,-4.676759E-3,-2.788244E-2,9.6245384E-1,-5.606495E-1,-1.002575E-2,-1.2978621E-1,-3.0809292E-1,-1.7809209E-1,-5.23805E-3,-2.7356783E-2,-9.386674E-2,8.5732466E-1,-2.1553801E-2,-1.573458E-1,1.5820426E0,-2.1551492E-2,-1.0028041E-2,-2.8043373E-2,5.4460842E-2,1.5820426E0,-4.797429E-3,7.554437E-1,-3.733091E-3,4.0674064E-1,-1.5526046E-2,-4.797429E-3,-2.9609925E-1,-9.440468E-2,-1.1756103E0,-1.4070801E-1,-9.012257E-3,2.2663772E-2,2.2458E0,-2.7594206E-1,-5.3017575E-2,1.6673341E-2,-8.234716E-2,-7.6170385E-2,5.373003E-2,7.7796206E-3,-9.191193E-2,4.6791438E-2,9.4419844E-2,6.05649E-2,-7.077979E-2,-3.9858613E-3,9.103533E-2,-6.827053E-2,5.177601E-2,-7.268419E-2,-1.3754524E-2,-6.288512E-2,5.8309883E-2,-7.190847E-2,9.287994E-2,-9.290265E-2,-2.669521E-2,-8.856746E-2,3.312576E-2,-6.2490728E-2,8.915458E-2,-4.189306E-2,-9.41697E-2,3.603072E-2,8.965447E-2,-3.4080792E-2,5.479532E-2,-8.987232E-2,5.1197745E-2,-3.485551E-2,5.5787563E-2,7.194554E-2,5.0725555E-3,-9.194171E-2,-2.4414986E-2,-7.7191293E-3,7.3984995E-2,2.2636184E-3,9.2012614E-2,-8.758238E-2,-4.3929657E-3,-5.7564955E-2,7.674504E-2,-9.1193944E-2,-8.489309E-3,-8.940918E-2,-2.0120835E-2,8.1105486E-2,1.2787587E-2],"split_indices":[2,27,2,41,0,40,33,42,21,45,4,8,3,17,44,16,17,17,45,42,16,37,33,8,5,23,40,31,43,8,23,2,40,23,0,23,38,8,0,17,41,34,16,41,40,8,0,16,43,42,43,20,6,43,2,0,17,23,6,0,31,21,0,0,0,0,0,0,0,0,0,0,0,0,0,0,0,0,0,0,0,0,0,0,0,0,0,0,0,0,0,0,0,0,0,0,0,0,0,0,0,0,0,0,0,0,0,0,0,0,0,0,0,0,0,0,0],"split_type":[0,0,0,0,0,0,0,0,0,0,0,0,0,0,0,0,0,0,0,0,0,0,0,0,0,0,0,0,0,0,0,0,0,0,0,0,0,0,0,0,0,0,0,0,0,0,0,0,0,0,0,0,0,0,0,0,0,0,0,0,0,0,0,0,0,0,0,0,0,0,0,0,0,0,0,0,0,0,0,0,0,0,0,0,0,0,0,0,0,0,0,0,0,0,0,0,0,0,0,0,0,0,0,0,0,0,0,0,0,0,0,0,0,0,0,0,0],"sum_hessian":[4.4951113E4,2.337871E4,2.1572402E4,3.4569285E3,1.9921783E4,1.9692098E4,1.8803053E3,1.9689921E3,1.4879364E3,1.933199E4,5.897931E2,1.0452054E3,1.8646893E4,1.8563534E3,2.3951883E1,1.435445E3,5.3354706E2,1.4310618E3,5.6874657E1,2.4016956E3,1.6930295E4,5.2817523E2,6.1617836E1,6.289894E2,4.162161E2,4.4339014E2,1.8203502E4,1.8044695E3,5.1883926E1,1.7464697E1,6.487186E0,1.1859119E3,2.4953307E2,7.0626305E1,4.6292075E2,2.8867288E2,1.1423889E3,4.74043E0,5.2134228E1,1.9574487E3,4.4424692E2,7.409815E1,1.6856195E4,2.0708216E1,5.0746704E2,6.0368458E1,1.2493765E0,2.2777429E2,4.012151E2,1.1256071E2,3.036554E2,4.081622E2,3.5227947E1,3.43321E2,1.786018E4,1.7076836E3,9.678584E1,5.9871993E0,4.589673E1,1.497043E0,1.5967654E1,5.2399306E0,1.2472552E0,5.0179844E1,1.135732E3,1.01083786E2,1.4844928E2,4.5681854E1,2.494445E1,1.3621419E2,3.2670657E2,2.4625946E2,4.2413437E1,3.3198036E1,1.1091909E3,2.4947221E0,2.2457078E0,1.2821029E3,6.7534576E2,8.033669E1,3.6391022E2,4.990506E0,6.910765E1,1.6396781E4,4.5941373E2,1.946003E1,1.2481847E0,1.7468017E0,5.0572025E2,2.4964206E0,5.787204E1,1.898266E1,2.0879163E2,1.1010198E2,2.911131E2,1.0931532E2,3.2453806E0,1.7256267E2,1.3109273E2,2.8331888E2,1.24843315E2,2.3485422E1,1.1742527E1,6.163561E1,2.8168542E2,3.816839E1,1.7822012E4,9.1797066E1,4.988775E0,1.4973022E0,4.4898973E0,4.4649532E1,1.2471937E0,1.2474693E1,3.4929607E0,3.9925756E0,1.2473549E0],"tree_param":{"num_deleted":"0","num_feature":"53","num_nodes":"117","size_leaf_vector":"1"}},{"base_weights":[9.258049E-4,-1.3458622E0,1.611729E0,-1.6264461E0,4.138899E-1,2.1226823E-1,1.6766247E0,1.5790415E0,-1.6762182E0,-1.3126775E0,1.0062859E0,-6.9783217E-1,8.2716084E-1,1.693848E0,9.3754314E-2,-8.7800354E-2,1.8131652E0,-1.1599009E0,-1.7377483E0,-1.513725E0,3.004874E-1,1.5026284E0,-1.1571006E0,1.49908E0,-1.2907597E0,1.3508494E-1,1.4450041E0,1.7013476E0,-8.808493E-1,9.8345953E-1,-1.5335606E0,-3.7461246E-4,9.111217E-2,-1.7032576E0,-7.9976034E-1,-1.7450166E0,1.470969E0,-1.6260737E0,4.1784752E-2,-1.2781096E0,1.5446956E0,2.1555011E-1,1.5974796E0,1.6239516E0,-1.4113934E0,-1.1623453E0,1.7367198E0,-1.4370543E0,5.934135E-1,9.114409E-1,-5.483244E-1,1.6643054E0,-1.25351E0,1.3295939E0,1.7367682E0,-1.5332662E0,5.241217E-1,1.3164805E0,-1.4128836E0,1.9095683E-2,-1.8003627E0,-8.577222E-2,4.5042206E-2,-4.5010974E-3,-6.751659E-2,-5.873108E-2,-8.898169E-2,-4.404749E-2,8.954554E-2,-6.744484E-3,-8.777982E-2,8.3044045E-2,-6.2823825E-2,7.171867E-2,-8.8027455E-2,9.064011E-2,-8.1081145E-2,5.80146E-2,-4.6202045E-2,8.16613E-2,-7.145815E-2,9.0289034E-2,-4.8673943E-2,-7.559518E-2,8.6327724E-2,-8.213313E-2,1.798526E-2,9.051879E-2,3.1150302E-2,-1.5524442E-2,-7.895236E-2,-2.2949724E-2,7.751676E-2,-3.9155543E-2,5.9197675E-2,-4.6965096E-2,5.0211925E-2,8.6999014E-2,4.3941613E-2,6.336417E-2,-7.6696925E-2,8.032992E-2,-7.1051507E-3,6.659463E-2,8.793065E-2,-9.2976056E-2,-1.807267E-2,-4.82577E-2,6.0832914E-2,7.465085E-2,-3.6586914E-2,-8.6622916E-2,2.4488213E-2,-6.9671676E-2,3.4990214E-2,-1.0824334E-2,-9.142072E-2],"categories":[],"categories_nodes":[],"categories_segments":[],"categories_sizes":[],"default_left":[0,0,0,0,0,0,0,0,0,0,0,0,0,0,0,0,0,0,0,0,0,0,0,0,0,0,0,0,0,0,0,0,0,0,0,0,0,0,0,0,0,0,0,0,0,0,0,0,0,0,0,0,0,0,0,0,0,0,0,0,0,0,0,0,0,0,0,0,0,0,0,0,0,0,0,0,0,0,0,0,0,0,0,0,0,0,0,0,0,0,0,0,0,0,0,0,0,0,0,0,0,0,0,0,0,0,0,0,0,0,0,0,0,0,0,0,0],"id":2,"left_children":[1,3,5,7,9,11,13,15,17,19,21,23,25,27,29,-1,31,33,35,37,39,41,43,45,47,49,51,53,55,57,59,-1,-1,61,63,65,67,69,71,73,75,77,79,81,83,85,87,89,91,93,95,97,99,101,103,105,107,109,111,113,115,-1,-1,-1,-1,-1,-1,-1,-1,-1,-1,-1,-1,-1,-1,-1,-1,-1,-1,-1,-1,-1,-1,-1,-1,-1,-1,-1,-1,-1,-1,-1,-1,-1,-1,-1,-1,-1,-1,-1,-1,-1,-1,-1,-1,-1,-1,-1,-1,-1,-1,-1,-1,-1,-1,-1,-1],"loss_changes":[9.693274E4,1.2016336E4,1.8474961E3,3.3512656E3,3.4250027E3,5.0581787E2,5.299492E2,2.5415887E2,6.5459375E2,2.7792346E2,2.6784504E3,4.768349E2,2.3039023E2,3.7291016E2,3.0607498E2,0E0,4.985962E0,4.298894E2,4.3322656E2,1.3304053E2,1.8982657E2,2.4723975E2,3.3167444E2,5.131668E1,8.013611E1,1.3603587E2,1.7063208E2,2.502461E2,5.261572E1,1.1088139E2,3.0998947E1,0E0,0E0,2.9395508E1,5.185124E2,3.6170703E2,3.338936E1,1.3682849E2,1.1187321E2,5.8407707E1,4.8729156E1,1.5217992E2,2.0667432E2,2.0406021E1,1.3736957E2,5.6998787E0,4.774933E0,4.225183E1,2.2294512E1,5.632773E1,8.379152E1,1.4153137E1,1.7479103E1,6.8214746E2,1.5250781E2,1.4182495E1,2.0429852E1,4.4649673E1,1.1276966E1,1.2465724E1,2.438736E0,0E0,0E0,0E0,0E0,0E0,0E0,0E0,0E0,0E0,0E0,0E0,0E0,0E0,0E0,0E0,0E0,0E0,0E0,0E0,0E0,0E0,0E0,0E0,0E0,0E0,0E0,0E0,0E0,0E0,0E0,0E0,0E0,0E0,0E0,0E0,0E0,0E0,0E0,0E0,0E0,0E0,0E0,0E0,0E0,0E0,0E0,0E0,0E0,0E0,0E0,0E0,0E0,0E0,0E0,0E0,0E0],"parents":[2147483647,0,0,1,1,2,2,3,3,4,4,5,5,6,6,7,7,8,8,9,9,10,10,11,11,12,12,13,13,14,14,16,16,17,17,18,18,19,19,20,20,21,21,22,22,23,23,24,24,25,25,26,26,27,27,28,28,29,29,30,30,33,33,34,34,35,35,36,36,37,37,38,38,39,39,40,40,41,41,42,42,43,43,44,44,45,45,46,46,47,47,48,48,49,49,50,50,51,51,52,52,53,53,54,54,55,55,56,56,57,57,58,58,59,59,60,60],"right_children":[2,4,6,8,10,12,14,16,18,20,22,24,26,28,30,-1,32,34,36,38,40,42,44,46,48,50,52,54,56,58,60,-1,-1,62,64,66,68,70,72,74,76,78,80,82,84,86,88,90,92,94,96,98,100,102,104,106,108,110,112,114,116,-1,-1,-1,-1,-1,-1,-1,-1,-1,-1,-1,-1,-1,-1,-1,-1,-1,-1,-1,-1,-1,-1,-1,-1,-1,-1,-1,-1,-1,-1,-1,-1,-1,-1,-1,-1,-1,-1,-1,-1,-1,-1,-1,-1,-1,-1,-1,-1,-1,-1,-1,-1,-1,-1,-1,-1],"split_conditions":[-5.3797266E-3,-3.4341644E-3,-1.0022578E-2,-1.121132E0,-1.0019582E-2,-8.4845334E-2,6.4288867E-1,4.582382E-1,-3.848712E-1,-4.9044755E-1,3.4957413E-2,-1.1761851E-1,-5.3797173E-3,1.5816294E0,-1.0499216E0,-8.7800354E-2,-2.4906414E-2,-3.4457368E-3,1.6578308E0,-7.495083E-2,-5.2249623E-3,-3.6177203E-2,-8.294134E-1,-1.0036675E-2,-5.2249623E-3,-3.2541302E-1,1.1911462E-1,-1.175844E0,-1.119113E0,1.1856509E-1,-4.8462335E-2,-3.7461246E-4,9.111217E-2,9.0743893E-1,-1.3655029E-1,-4.5414105E-1,-2.0846357E0,-3.6574066E-1,-2.5761917E-2,-1.9710978E-2,-3.7169793E-1,-3.09683E-1,2.2910511E0,1.4048988E0,1.0416908E0,-5.028527E-3,-7.914403E-2,-5.6052166E-1,-1.1562175E0,-1.9726995E-2,1.414742E-2,-5.2419477E-3,-5.3797117E-3,4.0674064E-1,-2.4906414E-2,-3.144441E-2,-9.759199E-3,3.6473773E0,1.1255599E-2,-1.1403114E0,-4.1820884E-2,-8.577222E-2,4.5042206E-2,-4.5010974E-3,-6.751659E-2,-5.873108E-2,-8.898169E-2,-4.404749E-2,8.954554E-2,-6.744484E-3,-8.777982E-2,8.3044045E-2,-6.2823825E-2,7.171867E-2,-8.8027455E-2,9.064011E-2,-8.1081145E-2,5.80146E-2,-4.6202045E-2,8.16613E-2,-7.145815E-2,9.0289034E-2,-4.8673943E-2,-7.559518E-2,8.6327724E-2,-8.213313E-2,1.798526E-2,9.051879E-2,3.1150302E-2,-1.5524442E-2,-7.895236E-2,-2.2949724E-2,7.751676E-2,-3.9155543E-2,5.9197675E-2,-4.6965096E-2,5.0211925E-2,8.6999014E-2,4.3941613E-2,6.336417E-2,-7.6696925E-2,8.032992E-2,-7.1051507E-3,6.659463E-2,8.793065E-2,-9.2976056E-2,-1.807267E-2,-4.82577E-2,6.0832914E-2,7.465085E-2,-3.6586914E-2,-8.6622916E-2,2.4488213E-2,-6.9671676E-2,3.4990214E-2,-1.0824334E-2,-9.142072E-2],"split_indices":[11,39,40,20,40,33,4,2,45,2,23,27,11,46,17,0,3,39,17,37,38,3,31,40,38,49,15,17,22,23,25,0,0,17,23,23,36,45,24,5,23,49,36,46,17,44,15,2,17,6,5,38,11,20,3,52,26,2,26,46,3,0,0,0,0,0,0,0,0,0,0,0,0,0,0,0,0,0,0,0,0,0,0,0,0,0,0,0,0,0,0,0,0,0,0,0,0,0,0,0,0,0,0,0,0,0,0,0,0,0,0,0,0,0,0,0,0],"split_type":[0,0,0,0,0,0,0,0,0,0,0,0,0,0,0,0,0,0,0,0,0,0,0,0,0,0,0,0,0,0,0,0,0,0,0,0,0,0,0,0,0,0,0,0,0,0,0,0,0,0,0,0,0,0,0,0,0,0,0,0,0,0,0,0,0,0,0,0,0,0,0,0,0,0,0,0,0,0,0,0,0,0,0,0,0,0,0,0,0,0,0,0,0,0,0,0,0,0,0,0,0,0,0,0,0,0,0,0,0,0,0,0,0,0,0,0,0],"sum_hessian":[4.467961E4,2.4334102E4,2.0345508E4,2.0987777E4,3.3463242E3,9.018378E2,1.944367E4,3.2042734E2,2.066735E4,8.545321E2,2.491792E3,3.6357574E2,5.382621E2,1.9234309E4,2.093608E2,2.0592379E1,2.9983493E2,2.2028076E3,1.8464543E4,7.5988934E2,9.464277E1,2.0270374E3,4.647547E2,7.694633E1,2.866294E2,2.5445427E2,2.838078E2,1.9178785E4,5.5524746E1,1.3561267E2,7.374813E1,1.4884949E0,2.9834644E2,8.7656854E2,1.3262391E3,1.8423266E4,4.1275932E1,7.086601E2,5.1229237E1,4.1703697E1,5.2939075E1,1.393539E2,1.8876835E3,3.848463E1,4.2627008E2,5.988419E0,7.095791E1,2.6619806E2,2.0431355E1,1.1897008E2,1.3548419E2,2.6283142E2,2.0976397E1,1.6717365E3,1.7507049E4,3.7854973E1,1.7669773E1,1.1946165E2,1.6151014E1,1.0950438E1,6.2797695E1,8.7282513E2,3.743402E0,5.798811E2,7.4635803E2,1.0561266E3,1.7367139E4,4.7326136E0,3.6543316E1,5.679745E1,6.518626E2,2.2673367E1,2.8555872E1,5.999386E0,3.570431E1,4.9200516E1,3.7385583E0,7.61806E1,6.3173294E1,1.866104E3,2.157936E1,3.625167E1,2.2329597E0,4.1354227E2,1.2727796E1,4.491714E0,1.4967048E0,6.596947E1,4.9884458E0,3.0152884E1,2.3604517E2,9.978021E0,1.0453333E1,1.6222265E1,1.0274781E2,1.0854469E2,2.6939499E1,2.3862628E2,2.4205122E1,1.7476392E0,1.9228756E1,1.4068464E3,2.6489E2,8.993989E2,1.6607648E4,2.9151709E1,8.703264E0,5.4836736E0,1.21861E1,1.1023181E2,9.22984E0,1.3904945E1,2.2460685E0,3.2205284E0,7.729909E0,1.2445428E0,6.155315E1],"tree_param":{"num_deleted":"0","num_feature":"53","num_nodes":"117","size_leaf_vector":"1"}},{"base_weights":[-5.154067E-4,-1.2915096E0,1.5471233E0,-1.5525068E0,9.729834E-1,1.675994E-1,1.6110636E0,1.5529995E0,-1.5799159E0,1.3478501E0,-1.0536702E0,1.2575927E0,-3.9962253E-1,6.298951E-1,1.6346692E0,-1.1367525E0,8.75483E-2,-1.5985026E0,1.5778251E0,-5.0295335E-1,1.5695169E0,-1.3326428E0,4.2808574E-1,-1.3329195E0,1.4484632E0,-1.252788E0,4.4858173E-1,-3.1229305E-1,1.4810084E0,-3.4379188E-2,1.6426189E0,-7.904356E-2,5.977568E-2,-1.6184323E0,5.54646E-1,1.6740605E0,-9.615217E-1,1.654948E0,-9.656963E-1,1.7930128E-1,1.6598259E0,-1.479981E0,8.548429E-2,-1.5034465E0,9.734492E-1,-8.487231E-2,6.266428E-2,6.240678E-1,1.6303933E0,-1.3898907E0,7.239939E-1,-8.365691E-2,1.3300971E0,2.4288425E-1,-1.4329093E0,1.5749133E0,-9.610807E-1,1.6153969E0,-1.6679358E0,1.6469997E0,-6.0112375E-1,-5.297553E-2,-8.332649E-2,-3.533346E-2,7.14887E-2,-5.4401875E-2,8.704952E-2,-6.930187E-2,3.0546808E-3,-4.950848E-2,9.094954E-2,-7.93515E-2,1.02660265E-2,5.4667503E-2,-6.6342905E-2,-7.485486E-2,8.3456255E-2,-8.05556E-2,5.5751927E-2,-8.07538E-2,-9.521502E-3,-7.521648E-2,6.908708E-2,-6.330485E-3,5.895381E-2,8.229732E-2,-3.518963E-2,-7.347607E-2,-1.0184569E-2,6.8159185E-2,-4.8188604E-2,-3.1670712E-2,4.379168E-2,7.28417E-2,-7.572143E-2,-7.11697E-2,3.9536607E-2,-8.406235E-2,-2.6479166E-3,8.029922E-2,4.184741E-3,-7.3512316E-2,2.3197196E-2,-5.7505704E-3,8.384042E-2,-8.6017005E-2,6.013397E-3,7.692688E-2,8.660931E-2,-6.926029E-2,3.305256E-2],"categories":[],"categories_nodes":[],"categories_segments":[],"categories_sizes":[],"default_left":[0,0,0,0,0,0,0,0,0,0,0,0,0,0,0,0,0,0,0,0,0,0,0,0,0,0,0,0,0,0,0,0,0,0,0,0,0,0,0,0,0,0,0,0,0,0,0,0,0,0,0,0,0,0,0,0,0,0,0,0,0,0,0,0,0,0,0,0,0,0,0,0,0,0,0,0,0,0,0,0,0,0,0,0,0,0,0,0,0,0,0,0,0,0,0,0,0,0,0,0,0,0,0,0,0,0,0,0,0,0,0],"id":3,"left_children":[1,3,5,7,9,11,13,15,17,19,21,23,25,27,29,31,-1,33,35,37,39,41,43,45,47,49,51,53,55,57,59,-1,-1,61,63,65,67,69,71,73,75,77,-1,79,81,-1,-1,83,85,87,89,91,93,95,97,99,101,103,105,107,109,-1,-1,-1,-1,-1,-1,-1,-1,-1,-1,-1,-1,-1,-1,-1,-1,-1,-1,-1,-1,-1,-1,-1,-1,-1,-1,-1,-1,-1,-1,-1,-1,-1,-1,-1,-1,-1,-1,-1,-1,-1,-1,-1,-1,-1,-1,-1,-1,-1,-1],"loss_changes":[8.8225266E4,1.4230238E4,1.7711328E3,1.839918E3,1.8920786E3,5.5118884E2,4.434922E2,1.02822754E2,1.2584531E3,8.625791E2,1.6138031E2,1.5278906E2,4.2505276E2,3.6334894E2,2.4872266E2,1.59645195E1,0E0,9.137969E2,3.233261E1,2.2670355E2,2.3525195E2,1.493899E2,6.7188736E1,2.2356888E1,4.1674072E1,8.033536E1,1.3846512E2,1.3448088E2,5.60766E1,2.4476054E2,1.8432422E2,0E0,0E0,5.6489453E2,2.1719365E2,2.4354675E1,2.35325E0,1.9233238E1,1.3584511E2,1.605465E2,5.4214355E1,1.0831671E2,0E0,1.7636395E0,5.19161E1,0E0,0E0,2.2264082E1,9.601379E0,2.558789E1,2.2503323E1,9.804008E1,4.224974E1,1.3351656E2,2.4437988E1,1.04991455E1,7.5251894E0,4.995743E0,4.4823074E0,1.6934375E2,3.761097E1,0E0,0E0,0E0,0E0,0E0,0E0,0E0,0E0,0E0,0E0,0E0,0E0,0E0,0E0,0E0,0E0,0E0,0E0,0E0,0E0,0E0,0E0,0E0,0E0,0E0,0E0,0E0,0E0,0E0,0E0,0E0,0E0,0E0,0E0,0E0,0E0,0E0,0E0,0E0,0E0,0E0,0E0,0E0,0E0,0E0,0E0,0E0,0E0,0E0,0E0],"parents":[2147483647,0,0,1,1,2,2,3,3,4,4,5,5,6,6,7,7,8,8,9,9,10,10,11,11,12,12,13,13,14,14,15,15,17,17,18,18,19,19,20,20,21,21,22,22,23,23,24,24,25,25,26,26,27,27,28,28,29,29,30,30,33,33,34,34,35,35,36,36,37,37,38,38,39,39,40,40,41,41,43,43,44,44,47,47,48,48,49,49,50,50,51,51,52,52,53,53,54,54,55,55,56,56,57,57,58,58,59,59,60,60],"right_children":[2,4,6,8,10,12,14,16,18,20,22,24,26,28,30,32,-1,34,36,38,40,42,44,46,48,50,52,54,56,58,60,-1,-1,62,64,66,68,70,72,74,76,78,-1,80,82,-1,-1,84,86,88,90,92,94,96,98,100,102,104,106,108,110,-1,-1,-1,-1,-1,-1,-1,-1,-1,-1,-1,-1,-1,-1,-1,-1,-1,-1,-1,-1,-1,-1,-1,-1,-1,-1,-1,-1,-1,-1,-1,-1,-1,-1,-1,-1,-1,-1,-1,-1,-1,-1,-1,-1,-1,-1,-1,-1,-1,-1],"split_conditions":[-5.3797266E-3,1.5820426E0,-1.0022578E-2,-2.8180353E-2,2.364979E-1,-2.7312241E-2,-3.6177203E-2,4.582382E-1,1.0416908E0,-1.00276E-2,-9.332888E-4,-1.9632427E0,-3.1633742E-2,-5.3797234E-3,-3.446836E-3,1.0082004E0,8.75483E-2,-3.1772066E-2,1.4553359E0,-7.3592156E-1,-1.175844E0,2.7658602E1,-5.2291476E-3,-1.573458E-1,1.5820426E0,-5.2249623E-3,1.5820426E0,4.0674064E-1,3.3398485E-1,4.6348312E-1,1.5816294E0,-7.904356E-2,5.977568E-2,-4.5414105E-1,-3.4434798E-3,1.177881E-2,-1.3743155E-1,8.5732466E-1,-4.597227E-1,-1.6805644E-1,-3.446836E-3,-3.3988212E-3,8.548429E-2,7.6943818E-3,-1.175844E0,-8.487231E-2,6.266428E-2,-4.6434263E-3,1.5816294E0,-3.0809292E-1,-2.050209E-2,-3.7455887E-3,1.1341447E0,-1.9444343E-2,-3.733091E-3,3.6473773E0,-3.140638E-2,-5.5779046E-1,-9.620786E-3,8.2826465E-1,-1.119113E0,-5.297553E-2,-8.332649E-2,-3.533346E-2,7.14887E-2,-5.4401875E-2,8.704952E-2,-6.930187E-2,3.0546808E-3,-4.950848E-2,9.094954E-2,-7.93515E-2,1.02660265E-2,5.4667503E-2,-6.6342905E-2,-7.485486E-2,8.3456255E-2,-8.05556E-2,5.5751927E-2,-8.07538E-2,-9.521502E-3,-7.521648E-2,6.908708E-2,-6.330485E-3,5.895381E-2,8.229732E-2,-3.518963E-2,-7.347607E-2,-1.0184569E-2,6.8159185E-2,-4.8188604E-2,-3.1670712E-2,4.379168E-2,7.28417E-2,-7.572143E-2,-7.11697E-2,3.9536607E-2,-8.406235E-2,-2.6479166E-3,8.029922E-2,4.184741E-3,-7.3512316E-2,2.3197196E-2,-5.7505704E-3,8.384042E-2,-8.6017005E-2,6.013397E-3,7.692688E-2,8.660931E-2,-6.926029E-2,3.305256E-2],"split_indices":[11,16,40,8,51,8,3,2,17,40,30,46,52,11,39,42,0,52,22,20,17,16,38,34,16,38,16,20,23,51,46,0,0,23,39,3,34,17,31,51,39,39,0,30,17,0,0,43,46,0,8,43,46,6,43,2,52,2,40,42,22,0,0,0,0,0,0,0,0,0,0,0,0,0,0,0,0,0,0,0,0,0,0,0,0,0,0,0,0,0,0,0,0,0,0,0,0,0,0,0,0,0,0,0,0,0,0,0,0,0,0],"split_type":[0,0,0,0,0,0,0,0,0,0,0,0,0,0,0,0,0,0,0,0,0,0,0,0,0,0,0,0,0,0,0,0,0,0,0,0,0,0,0,0,0,0,0,0,0,0,0,0,0,0,0,0,0,0,0,0,0,0,0,0,0,0,0,0,0,0,0,0,0,0,0,0,0,0,0,0,0,0,0,0,0,0,0,0,0,0,0,0,0,0,0,0,0,0,0,0,0,0,0,0,0,0,0,0,0,0,0,0,0,0,0],"sum_hessian":[4.415495E4,2.4073617E4,2.0081332E4,2.1586008E4,2.4876094E3,8.896918E2,1.919164E4,1.8836327E2,2.1397645E4,2.0995872E3,3.8802216E2,3.041019E2,5.8558984E2,4.515283E2,1.8740111E4,1.2588076E1,1.7577518E2,2.1272924E4,1.2472061E2,2.2443143E2,1.8751559E3,3.26628E2,6.139416E1,2.0458181E1,2.836437E2,2.9170334E2,2.9388654E2,2.1459892E2,2.3692937E2,8.882039E1,1.8651291E4,1.0845088E1,1.7429873E0,2.1078072E4,1.948515E2,1.2049489E2,4.225724E0,3.9174282E1,1.8525714E2,1.1456288E2,1.760593E3,3.120301E2,1.4597895E1,1.3130972E1,4.8263187E1,1.8232023E1,2.226158E0,5.2079884E1,2.3156383E2,2.7306165E2,1.8641703E1,1.8381087E2,1.1007565E2,1.4402774E2,7.0571175E1,2.284981E2,8.431268E0,4.4196342E1,4.4624046E1,1.8615213E4,3.6079098E1,1.671957E3,1.9406115E4,7.989375E1,1.1495775E2,2.4897647E0,1.1800513E2,2.7349756E0,1.4907486E0,1.993525E0,3.7180756E1,1.2080406E2,6.445309E1,7.146607E1,4.3096813E1,4.7009797E0,1.755892E3,2.97382E2,1.4648101E1,1.1890057E1,1.2409151E0,6.4480243E0,4.1815166E1,2.246572E1,2.9614164E1,2.3032399E2,1.2398384E0,2.5566008E2,1.7401558E1,1.3660515E1,4.9811883E0,1.17072136E2,6.673873E1,1.058475E2,4.2281504E0,3.524178E1,1.08785965E2,5.9623E1,1.0948173E1,2.2375887E2,4.739238E0,6.1884E0,2.2428677E0,1.4848433E0,4.27115E1,4.3390415E1,1.2336313E0,8.197256E3,1.0417956E4,2.2194233E1,1.3884865E1],"tree_param":{"num_deleted":"0","num_feature":"53","num_nodes":"111","size_leaf_vector":"1"}},{"base_weights":[-3.0106218E-3,-1.242899E0,1.4862344E0,-1.4927E0,9.447611E-1,2.3381916E-1,1.5525833E0,1.5064456E0,-1.5191376E0,1.316911E0,-9.338319E-1,1.223283E0,-2.2305703E-1,1.5681461E0,4.2578638E-2,-9.167071E-1,1.6773953E0,-1.5370367E0,1.4970891E0,-4.1615057E-1,1.526398E0,-1.2065595E0,3.9208004E-1,-1.3420018E0,1.3964579E0,-1.0510293E0,3.4662142E-1,5.8723134E-1,1.5842831E0,8.779267E-1,-1.4245081E0,-7.862424E-2,5.6817647E-2,1.3953525E-2,8.4590234E-2,1.1810614E0,-1.5520585E0,1.6058737E0,-1.1839924E0,4.532446E-1,-1.6064894E0,-1.5208257E0,1.558658E0,1.3871151E0,-1.3831009E0,-1.3285905E0,9.606789E-1,-8.146136E-2,5.6487776E-2,5.9090453E-1,1.5922121E0,-1.2420094E0,1.3112106E0,1.1471188E0,-3.4717956E-1,1.0824262E0,-7.075879E-1,1.2651312E0,1.6114799E0,1.2078599E0,-1.2006061E0,6.4501114E-2,-8.347378E-2,7.942465E-2,-7.755431E-2,-5.3423483E-2,-8.031457E-2,-5.514595E-2,8.388258E-2,-8.78105E-3,-7.194479E-2,-1.5165118E-2,6.618803E-2,5.616237E-2,-8.278527E-2,7.832262E-3,-8.2132176E-2,7.912599E-2,-2.451655E-2,-2.0750621E-2,7.808774E-2,-7.259467E-2,5.3251445E-2,-5.5041527E-3,-8.078567E-2,-7.1770124E-2,6.6747956E-2,4.643707E-2,-6.477419E-2,8.0762714E-2,6.831107E-4,-6.603753E-2,5.911094E-2,-5.1084757E-2,8.011968E-2,6.891938E-2,-2.0946385E-2,-4.3828115E-2,3.9056405E-2,6.647865E-2,-5.994776E-2,-7.209378E-2,5.0879814E-2,3.5441197E-2,8.106267E-2,4.79498E-2,8.1210054E-2,-3.8020708E-2,6.813356E-2,-7.955766E-2,3.298119E-2,3.8922295E-2,-6.891587E-2],"categories":[],"categories_nodes":[],"categories_segments":[],"categories_sizes":[],"default_left":[0,0,0,0,0,0,0,0,0,0,0,0,0,0,0,0,0,0,0,0,0,0,0,0,0,0,0,0,0,0,0,0,0,0,0,0,0,0,0,0,0,0,0,0,0,0,0,0,0,0,0,0,0,0,0,0,0,0,0,0,0,0,0,0,0,0,0,0,0,0,0,0,0,0,0,0,0,0,0,0,0,0,0,0,0,0,0,0,0,0,0,0,0,0,0,0,0,0,0,0,0,0,0,0,0,0,0,0,0,0,0,0,0],"id":4,"left_children":[1,3,5,7,9,11,13,15,17,19,21,23,25,27,29,31,33,35,37,39,41,43,45,47,49,51,53,55,57,59,61,-1,-1,-1,-1,63,65,67,69,71,73,75,77,79,81,83,85,-1,-1,87,89,91,93,95,97,99,101,103,105,107,109,111,-1,-1,-1,-1,-1,-1,-1,-1,-1,-1,-1,-1,-1,-1,-1,-1,-1,-1,-1,-1,-1,-1,-1,-1,-1,-1,-1,-1,-1,-1,-1,-1,-1,-1,-1,-1,-1,-1,-1,-1,-1,-1,-1,-1,-1,-1,-1,-1,-1,-1,-1],"loss_changes":[8.065023E4,1.3026242E4,1.6485469E3,1.6984531E3,1.709333E3,4.5212036E2,4.4278516E2,7.917578E1,1.147125E3,7.411438E2,1.4676755E2,1.4220517E2,3.2329205E2,2.943203E2,2.3810707E2,1.928643E1,3.0625E0,8.6258203E2,3.8534546E1,2.2917252E2,1.8127441E2,1.5567294E2,6.9540054E1,1.6384773E1,4.579895E1,1.2763376E2,2.2606952E2,1.953505E2,1.5723828E2,8.6327095E1,2.5823685E1,0E0,0E0,0E0,0E0,1.3207256E2,5.481289E2,2.5401611E1,1.1541138E0,8.493169E1,1.4407089E1,4.256607E0,8.884863E1,7.540119E0,5.457794E1,6.032007E0,4.9467823E1,0E0,0E0,3.9145184E1,8.629883E0,5.0986755E1,1.6159473E1,6.8989914E1,1.3116058E2,1.255907E2,1.0858499E2,2.852395E2,1.3876562E2,3.3735123E1,1.3731684E1,1.2324518E1,0E0,0E0,0E0,0E0,0E0,0E0,0E0,0E0,0E0,0E0,0E0,0E0,0E0,0E0,0E0,0E0,0E0,0E0,0E0,0E0,0E0,0E0,0E0,0E0,0E0,0E0,0E0,0E0,0E0,0E0,0E0,0E0,0E0,0E0,0E0,0E0,0E0,0E0,0E0,0E0,0E0,0E0,0E0,0E0,0E0,0E0,0E0,0E0,0E0,0E0,0E0],"parents":[2147483647,0,0,1,1,2,2,3,3,4,4,5,5,6,6,7,7,8,8,9,9,10,10,11,11,12,12,13,13,14,14,15,15,16,16,17,17,18,18,19,19,20,20,21,21,22,22,23,23,24,24,25,25,26,26,27,27,28,28,29,29,30,30,35,35,36,36,37,37,38,38,39,39,40,40,41,41,42,42,43,43,44,44,45,45,46,46,49,49,50,50,51,51,52,52,53,53,54,54,55,55,56,56,57,57,58,58,59,59,60,60,61,61],"right_children":[2,4,6,8,10,12,14,16,18,20,22,24,26,28,30,32,34,36,38,40,42,44,46,48,50,52,54,56,58,60,62,-1,-1,-1,-1,64,66,68,70,72,74,76,78,80,82,84,86,-1,-1,88,90,92,94,96,98,100,102,104,106,108,110,112,-1,-1,-1,-1,-1,-1,-1,-1,-1,-1,-1,-1,-1,-1,-1,-1,-1,-1,-1,-1,-1,-1,-1,-1,-1,-1,-1,-1,-1,-1,-1,-1,-1,-1,-1,-1,-1,-1,-1,-1,-1,-1,-1,-1,-1,-1,-1,-1,-1,-1,-1],"split_conditions":[-5.3797266E-3,1.5820426E0,-1.0020992E-2,-2.8180353E-2,2.1248282E-1,-2.7257515E-2,6.4288867E-1,-5.463278E-1,1.0416908E0,-1.00276E-2,-9.332888E-4,-1.121132E0,-1.041663E0,-3.6177203E-2,-1.0499216E0,1.0286646E0,-5.0286334E-3,-4.2384666E-1,6.189062E-1,1.0286646E0,-4.0557262E-1,-2.8163007E-2,-1.0018349E-2,-1.573458E-1,1.5820426E0,2.8495844E-3,-3.2541302E-1,4.0674064E-1,-5.379726E-3,-3.2705823E-3,-5.264356E-2,-7.862424E-2,5.6817647E-2,1.3953525E-2,8.4590234E-2,1.6096583E-1,-3.848712E-1,1.177881E-2,-5.7589494E-2,8.5732466E-1,-1.1839511E-1,-1.5282723E-1,9.106955E-1,-1.3965495E0,7.554437E-1,3.017241E-1,-1.175844E0,-8.146136E-2,5.6487776E-2,-1.1443662E-1,3.8149695E0,1.0044452E0,-2.8024808E-1,-5.264356E-2,1.5820426E0,3.3398485E-1,-5.3797187E-3,8.400954E-1,-1.0017467E-2,-4.9364436E-1,1.2556121E-2,4.3611586E-1,-8.347378E-2,7.942465E-2,-7.755431E-2,-5.3423483E-2,-8.031457E-2,-5.514595E-2,8.388258E-2,-8.78105E-3,-7.194479E-2,-1.5165118E-2,6.618803E-2,5.616237E-2,-8.278527E-2,7.832262E-3,-8.2132176E-2,7.912599E-2,-2.451655E-2,-2.0750621E-2,7.808774E-2,-7.259467E-2,5.3251445E-2,-5.5041527E-3,-8.078567E-2,-7.1770124E-2,6.6747956E-2,4.643707E-2,-6.477419E-2,8.0762714E-2,6.831107E-4,-6.603753E-2,5.911094E-2,-5.1084757E-2,8.011968E-2,6.891938E-2,-2.0946385E-2,-4.3828115E-2,3.9056405E-2,6.647865E-2,-5.994776E-2,-7.209378E-2,5.0879814E-2,3.5441197E-2,8.106267E-2,4.79498E-2,8.1210054E-2,-3.8020708E-2,6.813356E-2,-7.955766E-2,3.298119E-2,3.8922295E-2,-6.891587E-2],"split_indices":[11,16,40,8,51,8,4,2,17,40,30,20,37,3,17,45,44,16,4,45,45,8,40,34,16,30,49,20,11,23,25,0,0,0,0,23,45,3,28,17,27,13,23,36,42,51,17,0,0,23,4,48,4,25,16,23,11,17,40,2,26,35,0,0,0,0,0,0,0,0,0,0,0,0,0,0,0,0,0,0,0,0,0,0,0,0,0,0,0,0,0,0,0,0,0,0,0,0,0,0,0,0,0,0,0,0,0,0,0,0,0,0,0],"split_type":[0,0,0,0,0,0,0,0,0,0,0,0,0,0,0,0,0,0,0,0,0,0,0,0,0,0,0,0,0,0,0,0,0,0,0,0,0,0,0,0,0,0,0,0,0,0,0,0,0,0,0,0,0,0,0,0,0,0,0,0,0,0,0,0,0,0,0,0,0,0,0,0,0,0,0,0,0,0,0,0,0,0,0,0,0,0,0,0,0,0,0,0,0,0,0,0,0,0,0,0,0,0,0,0,0,0,0,0,0,0,0,0,0],"sum_hessian":[4.3675406E4,2.383307E4,1.9842336E4,2.1390846E4,2.442226E3,9.985244E2,1.8843812E4,1.8642413E2,2.120442E4,2.0386649E3,4.0356116E2,3.1488834E2,6.8363605E2,1.8651543E4,1.9226889E2,1.199775E1,1.7442638E2,2.1079818E4,1.2460233E2,2.1974591E2,1.818919E3,3.3478836E2,6.877281E1,1.9486107E1,2.9540222E2,2.783037E2,4.0533237E2,3.0247513E2,1.8349068E4,1.22767555E2,6.9501335E1,9.270646E0,2.727104E0,1.9868089E0,1.7243958E2,1.1543274E2,2.0964385E4,1.2012914E2,4.4731874E0,1.27351E2,9.239491E1,1.8571236E1,1.8003478E3,2.0898521E1,3.1388983E2,1.6749514E1,5.20233E1,1.776287E1,1.7232349E0,5.8536346E1,2.3686588E2,2.5792545E2,2.0378277E1,1.8789198E2,2.1744037E2,2.1891617E2,8.3558975E1,1.4445803E3,1.6904488E4,1.0631127E2,1.6456287E1,9.922874E0,5.9578457E1,1.0081699E2,1.4615746E1,2.116099E3,1.8848287E4,2.730187E0,1.1739896E2,1.2433991E0,3.229788E0,6.8484314E1,5.8866684E1,1.2498527E0,9.114506E1,1.237976E0,1.733326E1,1.7798479E3,2.0499828E1,1.7247043E0,1.9173817E1,3.057064E2,8.183428E0,3.4579358E0,1.3291577E1,6.6454043E0,4.5377895E1,5.0075832E1,8.460514E0,2.3343517E2,3.4307084E0,2.5025221E2,7.673223E0,1.9828956E0,1.839538E1,1.6381947E2,2.4072508E1,1.4815276E2,6.928763E1,1.97895E2,2.1021166E1,5.8727215E1,2.4831757E1,5.649883E2,8.7959204E2,3.2473804E2,1.657975E4,7.46677E0,9.88445E1,1.3720398E1,2.7358902E0,6.946186E0,2.9766886E0],"tree_param":{"num_deleted":"0","num_feature":"53","num_nodes":"113","size_leaf_vector":"1"}},{"base_weights":[3.3764949E-3,-1.197324E0,1.434962E0,-1.4519128E0,3.8570786E-1,2.5429758E-1,1.49703E0,1.5586475E0,-1.4998025E0,-1.1910254E0,9.2228335E-1,1.1942518E0,-1.7730983E-1,1.5120156E0,7.642948E-2,-7.274338E-2,1.6310723E0,-9.871654E-1,-1.56145E0,-1.3825073E0,3.7577644E-1,1.3759649E0,-1.0280907E0,-6.66583E-1,1.3944652E0,-1.0931823E0,3.9030647E-1,5.4658324E-1,1.5280305E0,8.418705E-1,-1.3549803E0,8.195458E-2,-1.3959238E-3,-1.5234278E0,-6.390085E-1,-1.5684721E0,1.3301611E0,-1.5767511E0,-6.305813E-1,-1.146226E0,1.437505E0,2.3076662E-1,1.4596531E0,1.470778E0,-1.2609643E0,-1.527727E0,6.061189E-1,1.4205062E0,-6.370526E-2,-1.4075781E0,3.998172E-1,-9.2264235E-1,7.114976E-1,-1.7424552E-1,1.4004244E0,1.41986E0,1.6126776E0,1.1763468E0,-1.1462345E0,-1.5097743E0,6.0299736E-2,-7.76251E-2,-1.2478357E-2,2.562956E-3,-5.8798146E-2,-5.5352993E-2,-7.980534E-2,7.793672E-2,-6.727719E-2,-8.068612E-2,3.550464E-2,5.9509236E-2,-4.791932E-2,6.750042E-2,-7.7288926E-2,8.671322E-2,-8.339136E-2,6.533059E-2,-3.4127228E-2,7.5169764E-2,-3.8300905E-2,-5.421536E-2,8.069887E-2,-7.2015375E-2,2.6093578E-2,-8.0342926E-2,-1.1703803E-2,-3.335646E-2,6.413264E-2,4.7136135E-2,7.674778E-2,-1.9327724E-2,-7.493745E-2,-3.885823E-2,4.5384716E-2,-6.8466395E-2,1.6901901E-2,4.8856866E-2,-2.3917355E-2,2.4043232E-2,-7.7493615E-2,7.3250875E-2,-5.8084875E-2,3.610868E-2,7.364778E-2,8.079308E-2,4.1652415E-2,6.8543665E-2,-7.516423E-3,-7.9758644E-2,3.3290807E-2,-8.2461156E-2,3.7889723E-2],"categories":[],"categories_nodes":[],"categories_segments":[],"categories_sizes":[],"default_left":[0,0,0,0,0,0,0,0,0,0,0,0,0,0,0,0,0,0,0,0,0,0,0,0,0,0,0,0,0,0,0,0,0,0,0,0,0,0,0,0,0,0,0,0,0,0,0,0,0,0,0,0,0,0,0,0,0,0,0,0,0,0,0,0,0,0,0,0,0,0,0,0,0,0,0,0,0,0,0,0,0,0,0,0,0,0,0,0,0,0,0,0,0,0,0,0,0,0,0,0,0,0,0,0,0,0,0,0,0,0,0,0,0],"id":5,"left_children":[1,3,5,7,9,11,13,15,17,19,21,23,25,27,29,-1,31,33,35,37,39,41,43,45,47,49,51,53,55,57,59,-1,-1,61,63,65,67,69,71,73,75,77,79,81,83,85,87,89,-1,91,93,95,97,99,101,103,105,107,109,111,-1,-1,-1,-1,-1,-1,-1,-1,-1,-1,-1,-1,-1,-1,-1,-1,-1,-1,-1,-1,-1,-1,-1,-1,-1,-1,-1,-1,-1,-1,-1,-1,-1,-1,-1,-1,-1,-1,-1,-1,-1,-1,-1,-1,-1,-1,-1,-1,-1,-1,-1,-1,-1],"loss_changes":[7.39981E4,9.436426E3,1.4386289E3,2.910246E3,2.7460273E3,3.985842E2,3.9704297E2,7.140747E1,6.2590234E2,2.4779541E2,2.1438486E3,1.1610239E2,3.507238E2,2.8459375E2,2.1566502E2,0E0,4.161377E0,3.9744873E2,3.6191406E2,1.0630908E2,1.4796494E2,1.8796387E2,2.680817E2,3.4579674E1,2.1228027E1,1.2170529E2,1.763992E2,1.8660815E2,1.6398047E2,8.659231E1,2.9016708E1,0E0,0E0,3.0698242E1,4.8028302E2,2.2364844E2,2.8684258E1,5.0452393E1,9.2155304E1,3.9751804E1,5.2453934E1,1.3352933E2,1.7938599E2,1.6188675E1,1.3473389E2,1.5277748E0,1.2146862E1,1.37109375E1,0E0,1.928656E1,2.8006607E1,4.6834206E1,1.064756E2,1.4951062E2,2.4659576E1,2.9455664E2,2.3925781E1,2.8651978E1,1.6492054E1,2.1846756E1,0E0,0E0,0E0,0E0,0E0,0E0,0E0,0E0,0E0,0E0,0E0,0E0,0E0,0E0,0E0,0E0,0E0,0E0,0E0,0E0,0E0,0E0,0E0,0E0,0E0,0E0,0E0,0E0,0E0,0E0,0E0,0E0,0E0,0E0,0E0,0E0,0E0,0E0,0E0,0E0,0E0,0E0,0E0,0E0,0E0,0E0,0E0,0E0,0E0,0E0,0E0,0E0,0E0],"parents":[2147483647,0,0,1,1,2,2,3,3,4,4,5,5,6,6,7,7,8,8,9,9,10,10,11,11,12,12,13,13,14,14,16,16,17,17,18,18,19,19,20,20,21,21,22,22,23,23,24,24,25,25,26,26,27,27,28,28,29,29,30,30,33,33,34,34,35,35,36,36,37,37,38,38,39,39,40,40,41,41,42,42,43,43,44,44,45,45,46,46,47,47,49,49,50,50,51,51,52,52,53,53,54,54,55,55,56,56,57,57,58,58,59,59],"right_children":[2,4,6,8,10,12,14,16,18,20,22,24,26,28,30,-1,32,34,36,38,40,42,44,46,48,50,52,54,56,58,60,-1,-1,62,64,66,68,70,72,74,76,78,80,82,84,86,88,90,-1,92,94,96,98,100,102,104,106,108,110,112,-1,-1,-1,-1,-1,-1,-1,-1,-1,-1,-1,-1,-1,-1,-1,-1,-1,-1,-1,-1,-1,-1,-1,-1,-1,-1,-1,-1,-1,-1,-1,-1,-1,-1,-1,-1,-1,-1,-1,-1,-1,-1,-1,-1,-1,-1,-1,-1,-1,-1,-1,-1,-1],"split_conditions":[-5.3797266E-3,-3.4341644E-3,-1.0020992E-2,-2.8180353E-2,-1.0019582E-2,-2.7257515E-2,6.4288867E-1,-1.573458E-1,-3.848712E-1,-4.9044755E-1,3.4957413E-2,-5.1410395E-1,-8.4845334E-2,-3.6177203E-2,-1.0814176E0,-7.274338E-2,-8.047733E-3,-3.4457368E-3,1.6578308E0,-2.1553801E-2,-5.2249623E-3,-3.6177203E-2,-8.309197E-3,-2.4906414E-2,1.3999074E0,-1.00276E-2,-4.5257765E-3,-5.3797234E-3,8.2826465E-1,-3.2705823E-3,-5.028497E-3,8.195458E-2,-1.3959238E-3,6.81476E-2,-1.3655029E-1,-4.5414105E-1,7.7403253E-1,9.6359175E-1,-7.031072E-1,-1.9710978E-2,-3.7169793E-1,-2.7231216E-2,8.249319E-1,-3.6177203E-2,1.5758349E-3,-2.8179457E-2,-4.9566436E-3,-5.379724E-3,-6.370526E-2,-5.3797243E-3,-5.2291476E-3,-5.0284485E-3,5.19795E-1,3.773193E-1,4.6823218E-1,-2.4906414E-2,1.061947E0,-8.885819E-3,-6.348963E-4,-3.1147113E-2,6.0299736E-2,-7.76251E-2,-1.2478357E-2,2.562956E-3,-5.8798146E-2,-5.5352993E-2,-7.980534E-2,7.793672E-2,-6.727719E-2,-8.068612E-2,3.550464E-2,5.9509236E-2,-4.791932E-2,6.750042E-2,-7.7288926E-2,8.671322E-2,-8.339136E-2,6.533059E-2,-3.4127228E-2,7.5169764E-2,-3.8300905E-2,-5.421536E-2,8.069887E-2,-7.2015375E-2,2.6093578E-2,-8.0342926E-2,-1.1703803E-2,-3.335646E-2,6.413264E-2,4.7136135E-2,7.674778E-2,-1.9327724E-2,-7.493745E-2,-3.885823E-2,4.5384716E-2,-6.8466395E-2,1.6901901E-2,4.8856866E-2,-2.3917355E-2,2.4043232E-2,-7.7493615E-2,7.3250875E-2,-5.8084875E-2,3.610868E-2,7.364778E-2,8.079308E-2,4.1652415E-2,6.8543665E-2,-7.516423E-3,-7.9758644E-2,3.3290807E-2,-8.2461156E-2,3.7889723E-2],"split_indices":[11,39,40,8,40,8,4,34,45,2,23,2,33,3,17,0,30,39,17,41,38,3,30,3,21,40,43,11,42,23,44,0,0,5,23,23,51,35,23,5,23,8,35,3,30,8,43,11,0,11,38,44,50,20,23,3,23,8,26,52,0,0,0,0,0,0,0,0,0,0,0,0,0,0,0,0,0,0,0,0,0,0,0,0,0,0,0,0,0,0,0,0,0,0,0,0,0,0,0,0,0,0,0,0,0,0,0,0,0,0,0,0,0],"split_type":[0,0,0,0,0,0,0,0,0,0,0,0,0,0,0,0,0,0,0,0,0,0,0,0,0,0,0,0,0,0,0,0,0,0,0,0,0,0,0,0,0,0,0,0,0,0,0,0,0,0,0,0,0,0,0,0,0,0,0,0,0,0,0,0,0,0,0,0,0,0,0,0,0,0,0,0,0,0,0,0,0,0,0,0,0,0,0,0,0,0,0,0,0,0,0,0,0,0,0,0,0,0,0,0,0,0,0,0,0,0,0,0,0],"sum_hessian":[4.304755E4,2.3411773E4,1.9635777E4,2.0168316E4,3.2434573E3,9.8095984E2,1.8654818E4,3.1530457E2,1.9853012E4,8.2321387E2,2.4202432E3,3.0813556E2,6.728243E2,1.8460023E4,1.9479462E2,6.9519963E0,3.0835257E2,2.1329824E3,1.772003E4,7.3366846E2,8.954544E1,1.9637458E3,4.5649744E2,2.9706493E1,2.7842908E2,2.570835E2,4.157408E2,3.0179813E2,1.8158225E4,1.27191376E2,6.760325E1,3.0688116E2,1.4714124E0,8.383322E2,1.2946501E3,1.7677559E4,4.247147E1,5.821784E2,1.5149004E2,3.6764065E1,5.278138E1,1.3398885E2,1.829757E3,3.8461994E1,4.1803543E2,1.75985E1,1.2107994E1,2.7620148E2,2.2275984E0,2.1241116E2,4.4672314E1,8.134603E1,3.3439478E2,1.6407709E2,1.3772102E2,7.9792744E3,1.017895E4,1.09223976E2,1.7967398E1,6.413706E1,3.4661927E0,8.194115E2,1.8920736E1,5.668524E2,7.2779767E2,1.0012261E3,1.6676332E4,3.9513466E1,2.958005E0,5.7320575E2,8.972662E0,2.2711292E1,1.2877875E2,4.7443814E0,3.2019684E1,4.8580345E1,4.201032E0,6.1322586E1,7.266625E1,1.7948074E3,3.4949596E1,1.6924193E0,3.6769573E1,3.8000153E2,3.8033897E1,1.6355911E1,1.2425872E0,4.206046E0,7.9019485E0,5.5161194E1,2.2104028E2,1.7841688E1,1.9456947E2,1.3306014E1,3.13663E1,6.0000435E1,2.1345594E1,2.735107E2,6.0884075E1,1.1158688E2,5.2490208E1,1.3475203E2,2.9689999E0,5.653302E2,7.4139443E3,1.01364795E4,4.247104E1,9.52277E1,1.3996277E1,1.4495741E1,3.4716563E0,6.067822E1,3.458839E0],"tree_param":{"num_deleted":"0","num_feature":"53","num_nodes":"113","size_leaf_vector":"1"}},{"base_weights":[-7.08406E-4,-1.1587418E0,1.3883379E0,-1.3943521E0,8.8582104E-1,2.4450624E-1,1.4495331E0,1.4314294E0,-1.4190755E0,1.2146088E0,-9.879329E-1,1.1654589E0,-1.7841005E-1,1.4645921E0,4.3183293E-2,-8.725257E-1,1.5766817E0,-1.4355683E0,1.4123888E0,-4.4335252E-1,1.427036E0,-1.0926359E0,7.8425065E-2,-1.1706876E0,1.3185145E0,-9.364143E-1,4.6382135E-1,1.4716911E0,-9.2654073E-1,8.5391885E-1,-1.2750533E0,-7.007751E-2,4.568035E-2,2.0722425E-2,7.930748E-2,-1.4552557E0,5.5056316E-1,1.5288546E0,-6.553325E-2,2.2848272E-1,-1.4924905E0,2.0477727E-1,1.5018482E0,-1.3453377E0,1.4299123E-1,-7.65731E-2,5.8108103E-2,7.296628E-1,1.4772737E0,-1.1959895E0,6.119646E-1,7.531634E-1,-6.986167E-1,1.5044409E0,1.1301123E0,-1.5050977E0,3.6216477E-1,-9.983107E-1,1.2471828E0,-1.5688728E0,2.314702E-1,-4.6682436E-2,-7.504115E-2,-3.2552097E-2,6.7875974E-2,-3.4157623E-2,7.9905696E-2,-1.8220503E-2,8.082276E-2,-7.734334E-2,-1.1504125E-2,4.8249047E-2,-6.69271E-2,-7.1326874E-2,7.551614E-2,-7.2581604E-2,4.5182563E-2,-7.061066E-2,3.337175E-2,4.905081E-2,-3.843423E-2,7.522333E-2,-3.5592117E-3,-6.945242E-2,-2.7759973E-2,5.0704014E-2,-6.2651925E-2,5.7804167E-2,-2.8833834E-2,-4.622848E-2,5.126202E-2,5.869518E-2,7.671925E-2,6.312389E-2,-5.9804767E-2,-8.1288755E-2,4.213239E-2,-4.3985564E-2,5.5677265E-2,6.030697E-3,-7.942573E-2,7.13962E-2,-4.3995183E-2,-1.1262119E-2,-7.95845E-2,7.157013E-2,-3.5994582E-2],"categories":[],"categories_nodes":[],"categories_segments":[],"categories_sizes":[],"default_left":[0,0,0,0,0,0,0,0,0,0,0,0,0,0,0,0,0,0,0,0,0,0,0,0,0,0,0,0,0,0,0,0,0,0,0,0,0,0,0,0,0,0,0,0,0,0,0,0,0,0,0,0,0,0,0,0,0,0,0,0,0,0,0,0,0,0,0,0,0,0,0,0,0,0,0,0,0,0,0,0,0,0,0,0,0,0,0,0,0,0,0,0,0,0,0,0,0,0,0,0,0,0,0,0,0,0,0],"id":6,"left_children":[1,3,5,7,9,11,13,15,17,19,21,23,25,27,29,31,33,35,37,39,41,43,-1,45,47,49,51,53,55,57,59,-1,-1,-1,-1,61,63,65,-1,67,69,71,73,75,77,-1,-1,79,81,83,85,87,89,91,93,95,97,99,101,103,105,-1,-1,-1,-1,-1,-1,-1,-1,-1,-1,-1,-1,-1,-1,-1,-1,-1,-1,-1,-1,-1,-1,-1,-1,-1,-1,-1,-1,-1,-1,-1,-1,-1,-1,-1,-1,-1,-1,-1,-1,-1,-1,-1,-1,-1,-1],"loss_changes":[6.807072E4,1.111833E4,1.3463828E3,1.44775E3,1.4706763E3,3.8122852E2,3.8670312E2,6.1607178E1,9.6004297E2,7.154641E2,9.716733E1,1.1166974E2,3.2721906E2,3.0808203E2,2.0897166E2,1.1974627E1,1.2095947E0,7.9833594E2,3.9841217E1,1.6335608E2,1.6422607E2,1.0734628E2,0E0,1.8164314E1,2.5988586E1,1.24610535E2,1.2297337E2,1.9983203E2,4.088141E1,8.941142E1,3.3328476E1,0E0,0E0,0E0,0E0,4.786289E2,1.9570355E2,1.8690857E1,0E0,1.1732673E2,5.850876E0,1.24412346E2,4.4229248E1,6.9442566E1,4.920326E1,0E0,0E0,2.465345E1,9.668243E0,3.192575E1,3.4953354E1,1.5711507E2,2.9411617E1,1.6089062E2,4.8807568E2,1.2003342E1,1.7373127E1,1.4557459E1,3.981122E1,1.5559845E0,1.5900116E1,0E0,0E0,0E0,0E0,0E0,0E0,0E0,0E0,0E0,0E0,0E0,0E0,0E0,0E0,0E0,0E0,0E0,0E0,0E0,0E0,0E0,0E0,0E0,0E0,0E0,0E0,0E0,0E0,0E0,0E0,0E0,0E0,0E0,0E0,0E0,0E0,0E0,0E0,0E0,0E0,0E0,0E0,0E0,0E0,0E0,0E0],"parents":[2147483647,0,0,1,1,2,2,3,3,4,4,5,5,6,6,7,7,8,8,9,9,10,10,11,11,12,12,13,13,14,14,15,15,16,16,17,17,18,18,19,19,20,20,21,21,23,23,24,24,25,25,26,26,27,27,28,28,29,29,30,30,35,35,36,36,37,37,39,39,40,40,41,41,42,42,43,43,44,44,47,47,48,48,49,49,50,50,51,51,52,52,53,53,54,54,55,55,56,56,57,57,58,58,59,59,60,60],"right_children":[2,4,6,8,10,12,14,16,18,20,22,24,26,28,30,32,34,36,38,40,42,44,-1,46,48,50,52,54,56,58,60,-1,-1,-1,-1,62,64,66,-1,68,70,72,74,76,78,-1,-1,80,82,84,86,88,90,92,94,96,98,100,102,104,106,-1,-1,-1,-1,-1,-1,-1,-1,-1,-1,-1,-1,-1,-1,-1,-1,-1,-1,-1,-1,-1,-1,-1,-1,-1,-1,-1,-1,-1,-1,-1,-1,-1,-1,-1,-1,-1,-1,-1,-1,-1,-1,-1,-1,-1,-1],"split_conditions":[-5.3797266E-3,1.5820426E0,-1.0020992E-2,-2.8180353E-2,2.692035E-1,-2.7312241E-2,6.4288867E-1,4.582382E-1,1.0416908E0,-1.00276E-2,2.7658602E1,-1.8777107E0,-3.1633742E-2,1.5816294E0,-7.5372634E-3,-1.5282723E-1,-5.0286334E-3,-3.1772066E-2,6.189062E-1,-5.2388473E-3,-1.175844E0,-9.332888E-4,7.8425065E-2,-2.0846357E0,1.5820426E0,-1.002575E-2,1.1911462E-1,5.156319E-1,-1.119113E0,-5.3797252E-3,-3.1110905E-2,-7.007751E-2,4.568035E-2,2.0722425E-2,7.930748E-2,-4.5414105E-1,-3.4434798E-3,-5.2379393E-3,-6.553325E-2,4.582382E-1,-5.0285775E-3,-8.054155E-2,-3.446836E-3,-3.3988212E-3,-1.0018349E-2,-7.65731E-2,5.8108103E-2,-1.1443662E-1,3.8149695E0,-4.186404E-1,4.32453E-1,4.32453E-1,8.2826465E-1,-5.379726E-3,3.350155E-1,2.3618014E-1,-5.052545E-3,4.8742053E-1,-3.2705823E-3,-8.309197E-3,7.263645E-1,-4.6682436E-2,-7.504115E-2,-3.2552097E-2,6.7875974E-2,-3.4157623E-2,7.9905696E-2,-1.8220503E-2,8.082276E-2,-7.734334E-2,-1.1504125E-2,4.8249047E-2,-6.69271E-2,-7.1326874E-2,7.551614E-2,-7.2581604E-2,4.5182563E-2,-7.061066E-2,3.337175E-2,4.905081E-2,-3.843423E-2,7.522333E-2,-3.5592117E-3,-6.945242E-2,-2.7759973E-2,5.0704014E-2,-6.2651925E-2,5.7804167E-2,-2.8833834E-2,-4.622848E-2,5.126202E-2,5.869518E-2,7.671925E-2,6.312389E-2,-5.9804767E-2,-8.1288755E-2,4.213239E-2,-4.3985564E-2,5.5677265E-2,6.030697E-3,-7.942573E-2,7.13962E-2,-4.3995183E-2,-1.1262119E-2,-7.95845E-2,7.157013E-2,-3.5994582E-2],"split_indices":[11,16,40,8,51,8,4,2,17,40,16,46,52,46,8,13,44,52,4,38,17,30,0,36,16,40,15,15,22,11,52,0,0,0,0,23,39,38,0,2,44,51,39,39,40,0,0,23,4,35,51,51,42,11,51,28,26,2,23,30,4,0,0,0,0,0,0,0,0,0,0,0,0,0,0,0,0,0,0,0,0,0,0,0,0,0,0,0,0,0,0,0,0,0,0,0,0,0,0,0,0,0,0,0,0,0,0],"split_type":[0,0,0,0,0,0,0,0,0,0,0,0,0,0,0,0,0,0,0,0,0,0,0,0,0,0,0,0,0,0,0,0,0,0,0,0,0,0,0,0,0,0,0,0,0,0,0,0,0,0,0,0,0,0,0,0,0,0,0,0,0,0,0,0,0,0,0,0,0,0,0,0,0,0,0,0,0,0,0,0,0,0,0,0,0,0,0,0,0,0,0,0,0,0,0,0,0,0,0,0,0,0,0,0,0,0,0],"sum_hessian":[4.2315746E4,2.3076922E4,1.9238824E4,2.069267E4,2.384253E3,9.772654E2,1.8261559E4,1.7898097E2,2.0513688E4,2.0286393E3,3.5561374E2,3.069934E2,6.70272E2,1.8068047E4,1.935119E2,1.03176775E1,1.686633E2,2.039538E4,1.18307144E2,2.3027696E2,1.7983623E3,3.421721E2,1.3441635E1,1.8467531E1,2.8852588E2,3.0721652E2,3.6305545E2,1.8014947E4,5.3099884E1,1.20038574E2,7.347333E1,8.126154E0,2.1915236E0,1.7246709E0,1.6693863E2,2.019546E4,1.9991911E2,1.1387522E2,4.431926E0,1.4085806E2,8.941889E1,1.0394102E2,1.6944213E3,2.840013E2,5.8170765E1,1.6291569E1,2.1759632E0,6.2458355E1,2.2606752E2,2.6330313E2,4.3913395E1,2.9097986E2,7.207561E1,1.6435727E4,1.579222E3,3.6531403E1,1.6568481E1,2.0753479E1,9.928509E1,6.14477E1,1.2025626E1,1.6242477E3,1.8571215E4,8.039679E1,1.19522316E2,3.1881537E0,1.10687065E2,9.921456E1,4.1643505E1,8.551035E1,3.9085407E0,6.9889694E1,3.4051323E1,4.4065595E0,1.6900148E3,2.7152286E2,1.2478472E1,1.4242566E1,4.3928196E1,5.378156E1,8.676793E0,2.2219392E2,3.873598E0,2.014439E2,6.1859245E1,3.649987E1,7.413526E0,2.2341838E2,6.7561485E1,6.413309E1,7.9425178E0,1.3686063E3,1.5067119E4,1.4946321E3,8.459005E1,3.503792E1,1.4934808E0,6.1812935E0,1.0387188E1,7.4414387E0,1.3312041E1,9.181238E1,7.4727144E0,1.2076005E0,6.02401E1,5.094924E0,6.930702E0],"tree_param":{"num_deleted":"0","num_feature":"53","num_nodes":"107","size_leaf_vector":"1"}},{"base_weights":[-2.6501082E-3,-1.1222903E0,1.341316E0,-1.350363E0,8.4331125E-1,8.48556E-2,1.3873056E0,1.347649E0,-1.3734584E0,1.1751398E0,-9.195971E-1,-8.1777203E-1,8.483826E-1,1.4018692E0,-3.055942E-1,-9.674761E-1,1.5314165E0,-1.4332955E0,-5.695165E-1,1.7113797E-1,1.3782923E0,-1.1669468E0,3.0118087E-1,-1.2400867E0,1.3685105E0,-1.8977648E-1,1.3646829E0,5.472586E-1,1.4219958E0,8.4352905E-1,-1.027659E0,-7.384578E-2,5.1279044E-1,2.6320929E-2,7.702769E-2,-1.4413689E0,1.2217462E0,-1.0646765E0,4.0981784E-1,7.241756E-1,-1.5240198E0,-5.208692E-1,1.4296234E0,1.1279517E0,-1.2966384E0,-1.4269196E0,7.59019E-1,-7.792278E-1,-1.5442237E0,-6.618941E-1,1.4849744E0,-1.2687274E0,5.1510835E-1,1.4455318E0,-6.19486E-1,-2.7175486E-1,1.2868849E0,1.3026704E0,1.5203049E0,9.458087E-1,-6.701585E-2,-1.3211159E0,2.1829186E-1,5.7704587E-2,-2.8594974E-2,-7.278736E-2,-6.352063E-3,6.819994E-2,-5.3220134E-2,-6.4848006E-2,8.235952E-2,4.2513918E-2,-5.5650115E-2,-1.363489E-2,6.018523E-2,-7.701471E-2,-1.2645031E-2,6.459101E-2,-5.862337E-2,7.2525896E-2,-1.1379836E-2,-3.9355848E-2,7.286122E-2,-6.7556664E-2,7.0723675E-2,-7.7359304E-2,-5.2151917E-3,5.8298886E-2,-7.106701E-2,-5.7936985E-2,-1.3944891E-2,-7.839197E-2,-7.377185E-3,4.9576825E-3,-5.565284E-2,7.6138556E-2,6.8880008E-3,3.7459623E-2,-7.4884675E-2,-1.8223627E-2,5.268512E-2,-3.2375075E-2,7.46892E-2,-4.9190402E-2,4.7988713E-2,1.1370998E-2,-6.1811503E-2,-7.581983E-2,6.692689E-2,6.77686E-2,2.6909454E-2,7.299191E-2,7.702806E-2,-6.315263E-2,5.1798653E-2,4.9409278E-2,-6.88627E-2,-4.6453662E-2,5.7333816E-2],"categories":[],"categories_nodes":[],"categories_segments":[],"categories_sizes":[],"default_left":[0,0,0,0,0,0,0,0,0,0,0,0,0,0,0,0,0,0,0,0,0,0,0,0,0,0,0,0,0,0,0,0,0,0,0,0,0,0,0,0,0,0,0,0,0,0,0,0,0,0,0,0,0,0,0,0,0,0,0,0,0,0,0,0,0,0,0,0,0,0,0,0,0,0,0,0,0,0,0,0,0,0,0,0,0,0,0,0,0,0,0,0,0,0,0,0,0,0,0,0,0,0,0,0,0,0,0,0,0,0,0,0,0,0,0,0,0,0,0],"id":7,"left_children":[1,3,5,7,9,11,13,15,17,19,21,23,25,27,29,31,33,35,37,39,41,43,45,47,49,51,53,55,57,59,61,-1,63,-1,-1,65,67,69,71,73,75,77,79,81,83,85,87,89,91,93,95,97,99,101,103,105,107,109,111,113,-1,115,117,-1,-1,-1,-1,-1,-1,-1,-1,-1,-1,-1,-1,-1,-1,-1,-1,-1,-1,-1,-1,-1,-1,-1,-1,-1,-1,-1,-1,-1,-1,-1,-1,-1,-1,-1,-1,-1,-1,-1,-1,-1,-1,-1,-1,-1,-1,-1,-1,-1,-1,-1,-1,-1,-1,-1,-1],"loss_changes":[6.245666E4,1.0151883E4,1.0898828E3,1.2660898E3,1.3785667E3,4.6046774E2,4.490703E2,7.4959076E1,9.669375E2,4.0405786E2,1.13156586E2,2.8443604E2,1.9424051E2,3.095586E2,1.3033273E2,1.0797271E1,6.6192627E-1,4.0309375E2,6.770347E2,3.1490048E2,1.6144482E2,9.397824E1,5.150963E1,3.4843445E1,1.2818504E1,9.274031E1,3.9688293E1,2.528042E2,2.0479297E2,1.4839127E1,3.5488586E1,0E0,3.5475678E0,0E0,0E0,3.5257422E2,2.0086937E1,5.860642E2,3.157076E2,1.212988E2,1.3204346E0,5.362084E1,5.591748E1,1.196887E1,4.5447784E1,2.01725E0,4.694474E1,1.9474407E1,4.8452454E0,1.2801446E0,2.2163086E0,2.3361763E1,3.5415558E1,2.4463837E1,6.794373E0,9.5890274E1,3.3764313E1,3.2034277E2,9.580078E0,1.2984776E1,0E0,1.1480896E1,2.1528294E1,0E0,0E0,0E0,0E0,0E0,0E0,0E0,0E0,0E0,0E0,0E0,0E0,0E0,0E0,0E0,0E0,0E0,0E0,0E0,0E0,0E0,0E0,0E0,0E0,0E0,0E0,0E0,0E0,0E0,0E0,0E0,0E0,0E0,0E0,0E0,0E0,0E0,0E0,0E0,0E0,0E0,0E0,0E0,0E0,0E0,0E0,0E0,0E0,0E0,0E0,0E0,0E0,0E0,0E0,0E0,0E0],"parents":[2147483647,0,0,1,1,2,2,3,3,4,4,5,5,6,6,7,7,8,8,9,9,10,10,11,11,12,12,13,13,14,14,15,15,16,16,17,17,18,18,19,19,20,20,21,21,22,22,23,23,24,24,25,25,26,26,27,27,28,28,29,29,30,30,32,32,35,35,36,36,37,37,38,38,39,39,40,40,41,41,42,42,43,43,44,44,45,45,46,46,47,47,48,48,49,49,50,50,51,51,52,52,53,53,54,54,55,55,56,56,57,57,58,58,59,59,61,61,62,62],"right_children":[2,4,6,8,10,12,14,16,18,20,22,24,26,28,30,32,34,36,38,40,42,44,46,48,50,52,54,56,58,60,62,-1,64,-1,-1,66,68,70,72,74,76,78,80,82,84,86,88,90,92,94,96,98,100,102,104,106,108,110,112,114,-1,116,118,-1,-1,-1,-1,-1,-1,-1,-1,-1,-1,-1,-1,-1,-1,-1,-1,-1,-1,-1,-1,-1,-1,-1,-1,-1,-1,-1,-1,-1,-1,-1,-1,-1,-1,-1,-1,-1,-1,-1,-1,-1,-1,-1,-1,-1,-1,-1,-1,-1,-1,-1,-1,-1,-1,-1,-1],"split_conditions":[-5.3797266E-3,1.5820426E0,-2.0846357E0,-2.8180353E-2,2.364979E-1,-8.4845334E-2,1.2440253E0,4.582382E-1,-3.4341644E-3,-5.2249623E-3,-9.332888E-4,2.8616458E-1,-5.379724E-3,-3.6177203E-2,-9.609181E-2,-1.2635176E-1,-5.0286334E-3,1.0416908E0,-2.1553801E-2,-3.4136844E-3,-3.445601E-3,-2.8163007E-2,-3.4447126E-3,-2.0739011E-2,-1.175844E0,-4.369049E-3,1.1911462E-1,-5.3797234E-3,8.2826465E-1,1.2463769E0,9.752743E-2,-7.384578E-2,-1.05693676E-1,2.6320929E-2,7.702769E-2,1.4676809E0,6.189062E-1,6.251202E-2,7.7998227E-1,-1.175844E0,9.4173276E-1,-3.447743E-2,8.6519897E-1,-4.29864E-3,2.7658602E1,3.653422E-1,7.523473E-1,-4.621045E-3,-3.347976E-3,-5.390119E-1,2.4625065E-2,-2.7356783E-2,-2.1553801E-2,-5.039076E-3,-7.450402E-1,4.0674064E-1,-5.8001345E-1,4.155026E-1,-5.379723E-3,-1.1819168E-1,-6.701585E-2,-2.788244E-2,-3.8521306E-3,5.7704587E-2,-2.8594974E-2,-7.278736E-2,-6.352063E-3,6.819994E-2,-5.3220134E-2,-6.4848006E-2,8.235952E-2,4.2513918E-2,-5.5650115E-2,-1.363489E-2,6.018523E-2,-7.701471E-2,-1.2645031E-2,6.459101E-2,-5.862337E-2,7.2525896E-2,-1.1379836E-2,-3.9355848E-2,7.286122E-2,-6.7556664E-2,7.0723675E-2,-7.7359304E-2,-5.2151917E-3,5.8298886E-2,-7.106701E-2,-5.7936985E-2,-1.3944891E-2,-7.839197E-2,-7.377185E-3,4.9576825E-3,-5.565284E-2,7.6138556E-2,6.8880008E-3,3.7459623E-2,-7.4884675E-2,-1.8223627E-2,5.268512E-2,-3.2375075E-2,7.46892E-2,-4.9190402E-2,4.7988713E-2,1.1370998E-2,-6.1811503E-2,-7.581983E-2,6.692689E-2,6.77686E-2,2.6909454E-2,7.299191E-2,7.702806E-2,-6.315263E-2,5.1798653E-2,4.9409278E-2,-6.88627E-2,-4.6453662E-2,5.7333816E-2],"split_indices":[11,16,36,8,51,33,36,2,39,38,30,34,11,3,14,34,44,17,41,39,39,8,39,8,17,43,15,11,42,35,33,0,23,0,0,32,4,2,35,17,36,10,23,43,16,32,35,30,43,20,8,8,41,43,42,20,2,51,11,27,0,8,43,0,0,0,0,0,0,0,0,0,0,0,0,0,0,0,0,0,0,0,0,0,0,0,0,0,0,0,0,0,0,0,0,0,0,0,0,0,0,0,0,0,0,0,0,0,0,0,0,0,0,0,0,0,0,0,0],"split_type":[0,0,0,0,0,0,0,0,0,0,0,0,0,0,0,0,0,0,0,0,0,0,0,0,0,0,0,0,0,0,0,0,0,0,0,0,0,0,0,0,0,0,0,0,0,0,0,0,0,0,0,0,0,0,0,0,0,0,0,0,0,0,0,0,0,0,0,0,0,0,0,0,0,0,0,0,0,0,0,0,0,0,0,0,0,0,0,0,0,0,0,0,0,0,0,0,0,0,0,0,0,0,0,0,0,0,0,0,0,0,0,0,0,0,0,0,0,0,0],"sum_hessian":[4.15041E4,2.2641738E4,1.8862363E4,2.0287994E4,2.3537446E3,6.6613135E2,1.8196232E4,1.7170735E2,2.0116287E4,1.9811671E3,3.7257745E2,3.0522678E2,3.6090454E2,1.8041201E4,1.5503159E2,1.2313671E1,1.5939369E2,1.872203E4,1.3942574E3,3.3372162E2,1.6474456E3,3.0984238E2,6.273507E1,2.561753E2,4.9051483E1,1.200814E2,2.4082315E2,4.157539E2,1.7625447E4,5.9759567E1,9.527202E1,9.162593E0,3.151078E0,1.9642179E0,1.5742947E2,1.8665729E4,5.6301605E1,9.2598444E2,4.6827307E2,2.5206073E2,8.166089E1,4.3115E1,1.6043306E3,1.6161777E1,2.936806E2,1.2696342E1,5.0038727E1,1.0326296E2,1.5291234E2,2.4069002E0,4.6644585E1,4.713422E1,7.2947174E1,2.3165535E2,9.167801E0,1.9758922E2,2.181647E2,7.968151E3,9.657296E3,5.762751E1,2.1320577E0,7.7061516E1,1.82105E1,1.9400682E0,1.2110097E0,1.8463637E4,2.020914E2,5.3383266E1,2.9183373E0,8.5340796E2,7.257647E1,3.635589E2,1.0471415E2,8.200831E1,1.7005243E2,8.04195E1,1.2413803E0,1.1140515E1,3.1974487E1,1.5844778E3,1.9852686E1,2.1671324E0,1.3994644E1,2.8838553E2,5.295082E0,1.1482443E1,1.2138995E0,4.2560204E1,7.4785223E0,5.797308E1,4.5289883E1,1.5024931E2,2.663028E0,1.1861906E0,1.2207096E0,4.5244907E1,1.3996775E0,4.5716205E0,4.25626E1,2.7826632E1,4.512054E1,4.9403114E0,2.2671504E2,7.7556767E0,1.412124E0,1.307054E2,6.688382E1,3.4340906E0,2.147306E2,7.4535474E3,5.146038E2,2.4416787E3,7.215617E3,1.7498978E0,5.5877613E1,1.4348503E0,7.562667E1,8.144362E0,1.0066138E1],"tree_param":{"num_deleted":"0","num_feature":"53","num_nodes":"119","size_leaf_vector":"1"}},{"base_weights":[-7.700036E-4,-1.08802E0,1.3041345E0,-1.3093011E0,8.2196516E-1,3.672989E-1,1.3750137E0,-1.3773885E0,-4.4579765E-1,1.1914722E0,-6.6510826E-1,-2.7681366E-1,6.901778E-1,4.1224167E-1,1.3972502E0,1.2108059E0,-1.3909149E0,-1.2550627E0,1.4686172E-1,-2.5743583E-1,1.4173945E0,-1.2432874E0,6.6473104E-2,-1.2484568E0,6.131017E-1,-8.819267E-1,8.390713E-1,-3.4838846E-1,1.1862229E0,1.4018952E0,-8.4649444E-1,-6.800129E-2,1.4292526E0,-8.6992544E-1,-1.4517926E0,2.3821005E-1,-1.3301523E0,-1.2764279E0,5.719991E-1,3.7846196E-1,-1.1162099E0,6.9996566E-1,1.4528571E0,-1.3044865E0,1.3762189E0,1.112969E0,-8.637256E-1,-1.3392336E0,4.774941E-1,1.2245673E0,-2.5206333E-1,-1.0602655E-1,-2.1319199E0,1.2498564E0,3.3709493E-1,1.3041028E-1,-1.2107587E0,1.270997E0,-4.2958996E-1,-7.874763E-2,1.4089468E0,-1.5567186E0,5.37329E-1,-5.4814257E-2,7.418855E-2,-5.5218983E-2,-8.618165E-3,-7.288688E-2,5.821702E-2,-7.271404E-2,7.517418E-2,-4.67036E-2,-7.4192725E-2,7.2241776E-2,-6.8510495E-2,4.4214804E-2,-5.5502653E-2,5.960665E-2,-9.754377E-3,-7.282176E-2,3.5928834E-2,5.5249542E-2,-3.1043643E-2,7.283413E-2,-5.997606E-2,-6.846918E-2,4.4034492E-2,8.55282E-3,8.1117906E-2,5.9403997E-2,-7.1768224E-2,-7.0211165E-2,7.838828E-2,-3.4423254E-2,-7.3129736E-2,-5.968943E-2,5.938368E-2,7.255831E-2,3.3359192E-2,-5.6948155E-2,3.967881E-2,4.8162714E-2,-3.876626E-2,4.4266082E-2,-1.2310821E-1,-4.9268216E-2,6.556215E-2,-1.8901614E-2,5.166767E-2,-6.522873E-2,3.0236809E-2,5.006678E-2,-6.615599E-2,6.6613674E-2,-1.5692089E-2,-6.797834E-2,3.5408046E-2,6.959834E-2,-7.3940955E-2,5.4855805E-2,7.1825884E-2,-2.4148183E-2,-8.90761E-2,5.2798457E-2,-3.4276847E-2],"categories":[],"categories_nodes":[],"categories_segments":[],"categories_sizes":[],"default_left":[0,0,0,0,0,0,0,0,0,0,0,0,0,0,0,0,0,0,0,0,0,0,0,0,0,0,0,0,0,0,0,0,0,0,0,0,0,0,0,0,0,0,0,0,0,0,0,0,0,0,0,0,0,0,0,0,0,0,0,0,0,0,0,0,0,0,0,0,0,0,0,0,0,0,0,0,0,0,0,0,0,0,0,0,0,0,0,0,0,0,0,0,0,0,0,0,0,0,0,0,0,0,0,0,0,0,0,0,0,0,0,0,0,0,0,0,0,0,0,0,0,0,0,0,0],"id":8,"left_children":[1,3,5,7,9,11,13,15,17,19,21,23,25,27,29,31,33,35,37,39,41,43,45,47,49,51,53,55,57,59,61,-1,63,65,67,69,71,73,75,77,79,81,83,85,87,89,91,93,95,97,99,101,103,105,107,109,111,113,115,117,119,121,123,-1,-1,-1,-1,-1,-1,-1,-1,-1,-1,-1,-1,-1,-1,-1,-1,-1,-1,-1,-1,-1,-1,-1,-1,-1,-1,-1,-1,-1,-1,-1,-1,-1,-1,-1,-1,-1,-1,-1,-1,-1,-1,-1,-1,-1,-1,-1,-1,-1,-1,-1,-1,-1,-1,-1,-1,-1,-1,-1,-1,-1,-1],"loss_changes":[5.780668E4,9.394713E3,1.2291797E3,1.1704805E3,1.2691359E3,2.713646E2,3.6799023E2,6.4803516E2,6.991211E2,6.056843E2,1.946733E2,3.778423E2,2.0410925E2,2.3004916E2,1.7655469E2,5.614946E1,5.8126953E2,6.94068E1,5.1028702E2,1.3710403E2,3.9687744E1,4.2997253E1,1.9957353E2,3.3353607E1,1.21077E2,7.314839E1,1.6333856E2,8.170672E1,2.7060028E1,1.754375E2,3.5615257E1,0E0,1.3942825E1,3.1449292E2,2.574375E2,6.717703E1,3.433838E1,5.148828E1,3.419629E2,6.7692535E1,6.767642E1,4.2033283E1,1.7206299E1,3.689395E1,1.6073427E0,2.0166527E1,1.4489862E2,1.4938995E1,1.467605E1,1.5946945E1,8.934047E1,3.4906704E1,3.0998947E1,6.116931E1,1.7903178E2,8.784152E1,1.887416E1,1.830304E1,1.1963082E1,1.6789992E2,1.4211328E2,4.8462143E0,8.807272E0,0E0,0E0,0E0,0E0,0E0,0E0,0E0,0E0,0E0,0E0,0E0,0E0,0E0,0E0,0E0,0E0,0E0,0E0,0E0,0E0,0E0,0E0,0E0,0E0,0E0,0E0,0E0,0E0,0E0,0E0,0E0,0E0,0E0,0E0,0E0,0E0,0E0,0E0,0E0,0E0,0E0,0E0,0E0,0E0,0E0,0E0,0E0,0E0,0E0,0E0,0E0,0E0,0E0,0E0,0E0,0E0,0E0,0E0,0E0,0E0,0E0,0E0],"parents":[2147483647,0,0,1,1,2,2,3,3,4,4,5,5,6,6,7,7,8,8,9,9,10,10,11,11,12,12,13,13,14,14,15,15,16,16,17,17,18,18,19,19,20,20,21,21,22,22,23,23,24,24,25,25,26,26,27,27,28,28,29,29,30,30,32,32,33,33,34,34,35,35,36,36,37,37,38,38,39,39,40,40,41,41,42,42,43,43,44,44,45,45,46,46,47,47,48,48,49,49,50,50,51,51,52,52,53,53,54,54,55,55,56,56,57,57,58,58,59,59,60,60,61,61,62,62],"right_children":[2,4,6,8,10,12,14,16,18,20,22,24,26,28,30,32,34,36,38,40,42,44,46,48,50,52,54,56,58,60,62,-1,64,66,68,70,72,74,76,78,80,82,84,86,88,90,92,94,96,98,100,102,104,106,108,110,112,114,116,118,120,122,124,-1,-1,-1,-1,-1,-1,-1,-1,-1,-1,-1,-1,-1,-1,-1,-1,-1,-1,-1,-1,-1,-1,-1,-1,-1,-1,-1,-1,-1,-1,-1,-1,-1,-1,-1,-1,-1,-1,-1,-1,-1,-1,-1,-1,-1,-1,-1,-1,-1,-1,-1,-1,-1,-1,-1,-1,-1,-1,-1,-1,-1,-1],"split_conditions":[-5.3797266E-3,1.5820426E0,-1.0017467E-2,-3.4341644E-3,1.436832E-1,-8.4845334E-2,-3.6177203E-2,-2.8180353E-2,-1.0016939E-2,-1.0022578E-2,-3.4347123E-3,-1.041663E0,-4.932081E-3,-5.3797234E-3,1.5816294E0,-1.6001619E0,-3.848712E-1,-1.0079365E0,-3.6177203E-2,1.0286646E0,-1.175844E0,8.598501E-1,7.523473E-1,-2.7002975E-1,-6.6084516E-1,-5.2114576E-3,-2.0887744E-2,4.0674064E-1,1.0452763E0,-3.446836E-3,-1.119113E0,-6.800129E-2,-3.6177203E-2,8.5732466E-1,1.6578308E0,-3.4060816E-3,3.80593E-1,-1.1145776E-1,8.249319E-1,-4.1788208E-1,-5.2243425E-3,-2.1938466E-1,1.629902E0,-7.450402E-1,-5.3288154E-2,-1.5282723E-1,-1.8241808E-2,-5.379725E-3,-1.0995929E0,-1.3388619E-1,-1.0022578E-2,-2.6428686E-2,-8.5716593E-1,-7.63516E-1,-3.75154E-3,-1.9444343E-2,-2.0844609E-2,1.0328608E0,-7.766609E-2,8.4928316E-1,-5.379726E-3,-6.5839976E-1,-6.244972E-2,-5.4814257E-2,7.418855E-2,-5.5218983E-2,-8.618165E-3,-7.288688E-2,5.821702E-2,-7.271404E-2,7.517418E-2,-4.67036E-2,-7.4192725E-2,7.2241776E-2,-6.8510495E-2,4.4214804E-2,-5.5502653E-2,5.960665E-2,-9.754377E-3,-7.282176E-2,3.5928834E-2,5.5249542E-2,-3.1043643E-2,7.283413E-2,-5.997606E-2,-6.846918E-2,4.4034492E-2,8.55282E-3,8.1117906E-2,5.9403997E-2,-7.1768224E-2,-7.0211165E-2,7.838828E-2,-3.4423254E-2,-7.3129736E-2,-5.968943E-2,5.938368E-2,7.255831E-2,3.3359192E-2,-5.6948155E-2,3.967881E-2,4.8162714E-2,-3.876626E-2,4.4266082E-2,-1.2310821E-1,-4.9268216E-2,6.556215E-2,-1.8901614E-2,5.166767E-2,-6.522873E-2,3.0236809E-2,5.006678E-2,-6.615599E-2,6.6613674E-2,-1.5692089E-2,-6.797834E-2,3.5408046E-2,6.959834E-2,-7.3940955E-2,5.4855805E-2,7.1825884E-2,-2.4148183E-2,-8.90761E-2,5.2798457E-2,-3.4276847E-2],"split_indices":[11,16,40,39,51,33,3,8,40,40,39,37,43,11,46,35,45,51,3,45,17,17,35,1,49,38,8,20,46,39,22,0,3,17,17,39,46,29,35,20,38,51,46,42,31,13,7,11,22,46,40,8,21,31,43,6,26,21,33,17,11,20,28,0,0,0,0,0,0,0,0,0,0,0,0,0,0,0,0,0,0,0,0,0,0,0,0,0,0,0,0,0,0,0,0,0,0,0,0,0,0,0,0,0,0,0,0,0,0,0,0,0,0,0,0,0,0,0,0,0,0,0,0,0,0],"split_type":[0,0,0,0,0,0,0,0,0,0,0,0,0,0,0,0,0,0,0,0,0,0,0,0,0,0,0,0,0,0,0,0,0,0,0,0,0,0,0,0,0,0,0,0,0,0,0,0,0,0,0,0,0,0,0,0,0,0,0,0,0,0,0,0,0,0,0,0,0,0,0,0,0,0,0,0,0,0,0,0,0,0,0,0,0,0,0,0,0,0,0,0,0,0,0,0,0,0,0,0,0,0,0,0,0,0,0,0,0,0,0,0,0,0,0,0,0,0,0,0,0,0,0,0,0],"sum_hessian":[4.0742586E4,2.2224902E4,1.8517684E4,1.9917658E4,2.307244E3,1.3029049E3,1.7214777E4,1.846138E4,1.4562766E3,1.8482024E3,4.5904138E2,4.3508823E2,8.678168E2,3.89064E2,1.6825713E4,9.552176E1,1.836586E4,6.151641E2,8.4111255E2,2.4929019E2,1.5989122E3,2.56012E2,2.0302939E2,2.0780069E2,2.2728752E2,7.46539E1,7.9316284E2,1.9650175E2,1.9256224E2,1.6791328E4,3.438655E1,7.071662E0,8.8450096E1,1.9231223E3,1.6442736E4,2.9348656E1,5.858155E2,1.9299496E2,6.4811755E2,1.4355275E2,1.0573744E2,7.628846E1,1.5226238E3,2.5065793E2,5.3540707E0,9.544969E1,1.0757969E2,1.9763033E2,1.0170359E1,1.3292548E2,9.4362045E1,4.6731426E1,2.7922472E1,4.3538333E2,3.577795E2,1.2689619E2,6.960557E1,1.8316579E2,9.396445E0,7.954056E1,1.6711787E4,2.2641327E1,1.1745222E1,1.465232E0,8.698486E1,1.4389131E3,4.842093E2,1.64059E4,3.6837654E1,1.2490877E1,1.6857779E1,1.6575447E2,4.20061E2,5.9496E0,1.8704536E2,5.4702826E2,1.0108932E2,5.8906303E1,8.4646454E1,8.937146E1,1.6365982E1,5.8510174E1,1.7778286E1,1.5208811E3,1.7426422E0,2.4379097E2,6.866956E0,1.1955076E0,4.1585627E0,9.3235405E1,2.2142887E0,8.8360466E1,1.9219223E1,3.2541973E1,1.6508836E2,2.829846E0,7.3405128E0,9.33652E1,3.956028E1,5.1008205E1,4.3353844E1,1.7821058E1,2.8910368E1,2.5888557E0,2.5333616E1,1.1235149E1,4.241482E2,1.7672366E2,1.8105585E2,3.1089697E1,9.580649E1,2.9821997E0,6.662337E1,1.765009E2,6.664898E0,5.063045E0,4.3334007E0,3.8794453E1,4.07461E1,1.360879E3,1.5350908E4,4.464654E0,1.8176674E1,8.343198E0,3.4020245E0],"tree_param":{"num_deleted":"0","num_feature":"53","num_nodes":"125","size_leaf_vector":"1"}},{"base_weights":[-2.196653E-3,-1.05669E0,1.2656584E0,5.493903E-1,-1.228272E0,3.4717712E-1,1.335069E0,-1.0328003E0,1.2202339E0,-1.2934365E0,-2.902805E-1,-2.678788E-1,6.5274554E-1,1.3493322E0,-5.3810555E-2,-1.1679437E0,1.9391797E-1,-1.2587327E0,1.3704491E0,-1.3137662E0,1.3472605E0,5.972494E-1,-1.2471603E0,-1.2246988E0,5.8998734E-1,8.2466733E-1,-1.5729348E-1,1.356243E0,-8.0082834E-1,7.152058E-1,-1.2349354E0,-1.4188641E0,-7.124227E-1,1.2741109E0,-1.5496061E0,6.767333E-1,-1.4319166E0,1.3917122E0,-1.249382E0,-1.335269E0,2.9568323E-1,-9.427599E-1,1.4317546E0,-3.3849105E-1,1.0540805E0,1.4257579E-1,-1.3217877E0,-1.3015969E0,2.3451193E-1,1.1002936E0,-4.5002726E-1,-9.507911E-1,9.362408E-1,-4.9825945E-1,1.1303352E0,1.0405985E0,1.3965269E0,-1.332675E0,2.64651E-1,-9.482919E-1,1.1100627E0,-7.41791E-2,6.3390523E-1,-7.31808E-2,-4.345226E-2,3.992393E-2,-6.508489E-2,7.018778E-2,-5.321319E-2,-8.056443E-2,-8.846498E-3,6.704079E-2,-2.853249E-2,-1.5746733E-2,-7.2752655E-2,7.1692385E-2,4.6188306E-2,-6.89916E-2,-7.245105E-4,-4.1965775E-2,-6.970946E-2,-4.2506337E-2,5.4305296E-2,2.5387993E-3,-6.531345E-2,7.448539E-2,-3.1304773E-2,-5.033313E-2,4.2918656E-2,6.782466E-2,8.585021E-4,-7.306907E-2,6.0652256E-2,-6.779749E-2,1.2597285E-4,-7.596652E-2,-4.891384E-2,6.727561E-2,-4.4978812E-2,6.5104514E-2,1.9552974E-2,-6.224069E-2,1.7447649E-2,-1.13628246E-1,2.9890949E-2,5.8991995E-2,-1.6807331E-4,3.4151763E-2,-4.6687957E-2,6.272982E-2,-3.4833882E-2,1.8972509E-2,6.992814E-2,3.8909893E-2,7.057999E-2,-8.585957E-2,-1.9954637E-2,-3.5953484E-2,4.2829145E-2,2.595923E-2,-6.931724E-2,6.329601E-2,-5.558532E-2,-3.2578737E-2,5.217067E-2],"categories":[],"categories_nodes":[],"categories_segments":[],"categories_sizes":[],"default_left":[0,0,0,0,0,0,0,0,0,0,0,0,0,0,0,0,0,0,0,0,0,0,0,0,0,0,0,0,0,0,0,0,0,0,0,0,0,0,0,0,0,0,0,0,0,0,0,0,0,0,0,0,0,0,0,0,0,0,0,0,0,0,0,0,0,0,0,0,0,0,0,0,0,0,0,0,0,0,0,0,0,0,0,0,0,0,0,0,0,0,0,0,0,0,0,0,0,0,0,0,0,0,0,0,0,0,0,0,0,0,0,0,0,0,0,0,0,0,0,0,0,0,0,0,0],"id":9,"left_children":[1,3,5,7,9,11,13,15,17,19,21,23,25,27,29,31,33,35,37,39,41,43,45,47,49,51,53,55,57,59,61,63,65,67,69,71,73,75,77,79,81,83,85,87,89,91,93,95,97,99,101,103,105,107,109,111,113,115,117,119,121,-1,123,-1,-1,-1,-1,-1,-1,-1,-1,-1,-1,-1,-1,-1,-1,-1,-1,-1,-1,-1,-1,-1,-1,-1,-1,-1,-1,-1,-1,-1,-1,-1,-1,-1,-1,-1,-1,-1,-1,-1,-1,-1,-1,-1,-1,-1,-1,-1,-1,-1,-1,-1,-1,-1,-1,-1,-1,-1,-1,-1,-1,-1,-1],"loss_changes":[5.329713E4,5.9981973E3,1.1535293E3,2.2316372E3,1.2015234E3,2.394554E2,3.3345508E2,1.04043335E2,5.514031E2,9.887988E2,1.0866176E3,3.481693E2,1.18625275E2,2.4861719E2,1.5714159E2,6.347931E1,1.2062533E2,2.9412735E1,7.929639E1,6.3183594E2,2.8623932E1,2.842088E2,6.403284E1,2.2795502E1,1.19304016E2,1.3996463E2,6.633581E1,2.096836E2,3.0951584E1,6.990759E1,3.263449E1,7.6550293E0,1.8125552E2,1.3453148E1,1.7937012E0,7.1008725E0,1.5629272E0,2.5915283E1,1.870573E0,5.2497656E2,2.1952924E2,2.0955858E0,1.719226E1,1.756709E2,1.3996667E2,5.7187843E1,2.6438477E1,1.1927856E1,1.4920013E1,2.1025497E1,4.767736E1,8.734242E1,1.5131061E2,6.1929905E1,8.064133E0,4.4517883E2,1.3611719E2,1.2304001E1,1.1570891E1,1.3993221E1,3.0902908E1,0E0,5.264801E0,0E0,0E0,0E0,0E0,0E0,0E0,0E0,0E0,0E0,0E0,0E0,0E0,0E0,0E0,0E0,0E0,0E0,0E0,0E0,0E0,0E0,0E0,0E0,0E0,0E0,0E0,0E0,0E0,0E0,0E0,0E0,0E0,0E0,0E0,0E0,0E0,0E0,0E0,0E0,0E0,0E0,0E0,0E0,0E0,0E0,0E0,0E0,0E0,0E0,0E0,0E0,0E0,0E0,0E0,0E0,0E0,0E0,0E0,0E0,0E0,0E0,0E0],"parents":[2147483647,0,0,1,1,2,2,3,3,4,4,5,5,6,6,7,7,8,8,9,9,10,10,11,11,12,12,13,13,14,14,15,15,16,16,17,17,18,18,19,19,20,20,21,21,22,22,23,23,24,24,25,25,26,26,27,27,28,28,29,29,30,30,31,31,32,32,33,33,34,34,35,35,36,36,37,37,38,38,39,39,40,40,41,41,42,42,43,43,44,44,45,45,46,46,47,47,48,48,49,49,50,50,51,51,52,52,53,53,54,54,55,55,56,56,57,57,58,58,59,59,60,60,62,62],"right_children":[2,4,6,8,10,12,14,16,18,20,22,24,26,28,30,32,34,36,38,40,42,44,46,48,50,52,54,56,58,60,62,64,66,68,70,72,74,76,78,80,82,84,86,88,90,92,94,96,98,100,102,104,106,108,110,112,114,116,118,120,122,-1,124,-1,-1,-1,-1,-1,-1,-1,-1,-1,-1,-1,-1,-1,-1,-1,-1,-1,-1,-1,-1,-1,-1,-1,-1,-1,-1,-1,-1,-1,-1,-1,-1,-1,-1,-1,-1,-1,-1,-1,-1,-1,-1,-1,-1,-1,-1,-1,-1,-1,-1,-1,-1,-1,-1,-1,-1,-1,-1,-1,-1,-1,-1],"split_conditions":[-5.3797266E-3,-8.076838E-1,-1.0017467E-2,-1.0016939E-2,8.8906425E-1,-8.4845334E-2,6.4288867E-1,1.177881E-2,6.505121E-2,1.0416908E0,7.713686E-1,-1.041663E0,5.156319E-1,1.5816294E0,-7.5372634E-3,-1.0027028E-2,-1.9795459E-2,-1.1523106E-1,1.0145582E0,-3.2035362E-2,-5.2379393E-3,-1.1751388E0,-1.121412E0,-3.0809292E-1,-2.942773E-1,-2.1017693E-2,-5.215585E-3,-2.4906414E-2,-5.798929E-2,-5.3797257E-3,-3.0007996E-2,-6.062472E-1,-1.02760725E-1,2.6687045E-2,8.843235E-1,-1.727348E-1,-6.2206097E-2,-8.49856E-1,1.9465412E-1,-3.848712E-1,-2.1553801E-2,8.176863E-1,6.4288867E-1,8.2826465E-1,-7.927478E-2,-5.2235005E-3,-3.1836428E-2,-5.8778954E-1,-2.2258298E-2,-4.727308E-3,-1.002575E-2,-6.243511E-1,4.32453E-1,-2.4105811E-2,-9.332888E-4,1.2338215E-2,-1.175844E0,3.34219E-1,-7.941559E-3,-4.510989E-1,9.244082E-1,-7.41791E-2,-5.075051E-1,-7.31808E-2,-4.345226E-2,3.992393E-2,-6.508489E-2,7.018778E-2,-5.321319E-2,-8.056443E-2,-8.846498E-3,6.704079E-2,-2.853249E-2,-1.5746733E-2,-7.2752655E-2,7.1692385E-2,4.6188306E-2,-6.89916E-2,-7.245105E-4,-4.1965775E-2,-6.970946E-2,-4.2506337E-2,5.4305296E-2,2.5387993E-3,-6.531345E-2,7.448539E-2,-3.1304773E-2,-5.033313E-2,4.2918656E-2,6.782466E-2,8.585021E-4,-7.306907E-2,6.0652256E-2,-6.779749E-2,1.2597285E-4,-7.596652E-2,-4.891384E-2,6.727561E-2,-4.4978812E-2,6.5104514E-2,1.9552974E-2,-6.224069E-2,1.7447649E-2,-1.13628246E-1,2.9890949E-2,5.8991995E-2,-1.6807331E-4,3.4151763E-2,-4.6687957E-2,6.272982E-2,-3.4833882E-2,1.8972509E-2,6.992814E-2,3.8909893E-2,7.057999E-2,-8.585957E-2,-1.9954637E-2,-3.5953484E-2,4.2829145E-2,2.595923E-2,-6.931724E-2,6.329601E-2,-5.558532E-2,-3.2578737E-2,5.217067E-2],"split_indices":[11,51,40,40,36,33,4,3,45,17,35,37,15,46,8,40,6,27,46,52,38,17,21,0,49,5,38,3,25,11,52,21,27,3,42,35,28,51,14,45,41,21,4,42,27,38,52,31,24,30,40,46,51,8,30,42,17,35,6,46,37,0,35,0,0,0,0,0,0,0,0,0,0,0,0,0,0,0,0,0,0,0,0,0,0,0,0,0,0,0,0,0,0,0,0,0,0,0,0,0,0,0,0,0,0,0,0,0,0,0,0,0,0,0,0,0,0,0,0,0,0,0,0,0,0],"split_type":[0,0,0,0,0,0,0,0,0,0,0,0,0,0,0,0,0,0,0,0,0,0,0,0,0,0,0,0,0,0,0,0,0,0,0,0,0,0,0,0,0,0,0,0,0,0,0,0,0,0,0,0,0,0,0,0,0,0,0,0,0,0,0,0,0,0,0,0,0,0,0,0,0,0,0,0,0,0,0,0,0,0,0,0,0,0,0,0,0,0,0,0,0,0,0,0,0,0,0,0,0,0,0,0,0,0,0,0,0,0,0,0,0,0,0,0,0,0,0,0,0,0,0,0,0],"sum_hessian":[3.986288E4,2.1762695E4,1.8100182E4,2.1003489E3,1.9662348E4,1.2721642E3,1.6828018E4,6.252207E2,1.4751282E3,1.8384736E4,1.2776111E3,4.2229044E2,8.498737E2,1.6656984E4,1.7103305E2,5.6322046E2,6.200021E1,8.385806E1,1.3912701E3,1.824478E4,1.3995671E2,6.630197E2,6.1459143E2,1.9942944E2,2.2286101E2,7.010628E2,1.4881088E2,1.6603986E4,5.299757E1,1.03826996E2,6.7206055E1,3.6180692E2,2.0141356E2,3.8448708E1,2.35515E1,6.648481E0,7.720958E1,1.3805342E3,1.0735976E1,1.8004406E4,2.4037369E2,4.618735E0,1.3533798E2,2.1758763E2,4.4543207E2,3.1274632E1,5.8331683E2,1.8954855E2,9.880892E0,1.4946481E2,7.3396194E1,4.100661E1,6.600562E2,1.1814023E2,3.0670662E1,1.882272E3,1.4721715E4,3.5184193E1,1.781338E1,1.96484E1,8.41786E1,5.9496307E1,7.7097487E0,3.3303772E2,2.876917E1,5.6413727E1,1.4499983E2,3.6807693E1,1.6410139E0,2.2372345E1,1.1791548E0,4.289782E0,2.358699E0,1.8633376E0,7.534624E1,1.2646012E3,1.15932976E2,9.604063E0,1.1319128E0,1.9134452E3,1.6090961E4,9.809622E1,1.4227747E2,1.4676636E0,3.151071E0,1.318995E2,3.4384768E0,1.3973622E2,7.785141E1,3.4461703E2,1.0081505E2,1.2371857E1,1.8902775E1,5.6862463E2,1.4692199E1,1.1105896E2,7.8489586E1,4.89708E0,4.9838114E0,1.1570706E2,3.3757744E1,3.6514923E1,3.688127E1,2.1871393E1,1.9135216E1,5.239599E2,1.360963E2,3.1669146E1,8.647108E1,2.9010847E1,1.6598153E0,6.6187335E2,1.2203986E3,3.5157858E2,1.4370137E4,2.4325743E1,1.0858449E1,6.611336E0,1.1202044E1,4.4742975E0,1.5174103E1,7.906257E1,5.1160345E0,1.719858E0,5.989891E0],"tree_param":{"num_deleted":"0","num_feature":"53","num_nodes":"125","size_leaf_vector":"1"}},{"base_weights":[1.1414608E-3,-1.027695E0,1.2337492E0,5.2195066E-1,-1.1949179E0,3.3319822E-1,1.3035849E0,-9.3867296E-1,1.274585E0,-1.2607725E0,-2.696661E-1,-2.3166792E-1,6.111983E-1,3.9533934E-1,1.3248882E0,-1.3313112E0,6.547366E-1,-1.4056617E0,1.3796072E0,-1.2793081E0,1.2869465E0,5.797018E-1,-1.1778588E0,-1.1978571E0,6.0597044E-1,7.879633E-1,-2.2007887E-1,-3.1184456E-1,1.1382364E0,1.3326682E0,-6.405183E-1,-7.32045E-2,-9.5367116E-1,-1.3115014E0,1.306134E0,-7.1836166E-2,-6.8753445E-1,2.3008129E-1,1.4430764E0,-1.3011181E0,3.0404964E-1,-8.4689075E-1,1.397834E0,1.1347773E0,-1.802098E-1,-1.2696135E0,5.5464312E-2,6.0694307E-2,-1.310904E0,1.0781167E0,-3.920282E-1,-9.026507E-1,8.9908063E-1,-8.108558E-1,5.251024E-1,5.312642E-1,-7.414198E-1,-5.021366E-1,1.2215542E0,9.896179E-1,1.3637706E0,1.1286302E0,-1.3607128E0,-6.384517E-2,-1.7724658E-3,1.5709868E-2,-7.220233E-2,-4.1537136E-2,6.847493E-2,1.360488E-3,-4.844514E-2,7.398328E-2,-6.106515E-2,7.235685E-2,8.545811E-3,-6.7660004E-2,-4.2216312E-2,-3.927533E-2,5.207674E-2,-6.871189E-2,4.643019E-2,-3.809896E-2,7.171197E-2,6.1219003E-2,-7.53277E-2,-5.3889513E-2,2.6703969E-2,-6.5051995E-2,-3.4960408E-3,-6.449993E-2,7.4663915E-2,7.391136E-2,-6.0402762E-2,-6.700972E-2,5.619145E-2,-2.3045843E-3,6.043118E-2,-5.7199955E-2,1.8935453E-2,-1.0150702E-1,3.712835E-2,5.5677503E-2,-1.8075205E-3,-5.2109357E-2,5.6993764E-2,4.584806E-2,-4.3084923E-2,4.6685357E-2,-6.0109753E-2,-7.0301786E-2,-7.104721E-3,3.0171543E-2,-6.9654636E-2,6.292094E-2,-3.1684298E-2,2.0291016E-2,6.871353E-2,6.944866E-2,5.3834725E-2,7.043787E-2,-1.4481405E-2,1.7390406E-2,-7.168804E-2],"categories":[],"categories_nodes":[],"categories_segments":[],"categories_sizes":[],"default_left":[0,0,0,0,0,0,0,0,0,0,0,0,0,0,0,0,0,0,0,0,0,0,0,0,0,0,0,0,0,0,0,0,0,0,0,0,0,0,0,0,0,0,0,0,0,0,0,0,0,0,0,0,0,0,0,0,0,0,0,0,0,0,0,0,0,0,0,0,0,0,0,0,0,0,0,0,0,0,0,0,0,0,0,0,0,0,0,0,0,0,0,0,0,0,0,0,0,0,0,0,0,0,0,0,0,0,0,0,0,0,0,0,0,0,0,0,0,0,0,0,0,0,0],"id":10,"left_children":[1,3,5,7,9,11,13,15,17,19,21,23,25,27,29,31,33,35,37,39,41,43,45,47,49,51,53,55,57,59,61,-1,63,65,67,-1,69,71,73,75,77,79,81,83,85,87,89,91,93,95,97,99,101,103,105,107,109,111,113,115,117,119,121,-1,-1,-1,-1,-1,-1,-1,-1,-1,-1,-1,-1,-1,-1,-1,-1,-1,-1,-1,-1,-1,-1,-1,-1,-1,-1,-1,-1,-1,-1,-1,-1,-1,-1,-1,-1,-1,-1,-1,-1,-1,-1,-1,-1,-1,-1,-1,-1,-1,-1,-1,-1,-1,-1,-1,-1,-1,-1,-1,-1],"loss_changes":[4.9348668E4,5.4969355E3,1.1129668E3,2.2730002E3,1.1661777E3,2.0042558E2,3.1735938E2,4.4089557E2,3.8595166E2,8.456328E2,9.829253E2,3.4176862E2,1.2581238E2,1.9891605E2,2.463086E2,2.6914673E1,1.8066225E2,1.7068481E-1,9.5485596E1,6.131426E2,3.1845901E1,2.780285E2,6.974414E1,2.796817E1,1.0709198E2,1.333099E2,6.6776184E1,7.080632E1,2.5834244E1,1.692539E2,8.3039444E1,0E0,4.4398575E1,8.053074E0,1.5415787E1,0E0,8.4506047E-1,1.2859291E2,6.180908E0,4.152578E2,1.9519345E2,7.8528543E0,1.0808411E1,9.19595E1,1.7938022E2,2.151593E1,8.62553E1,3.2560802E1,1.4335999E1,2.2641525E1,4.2994614E1,8.3121704E1,1.3288715E2,3.9301983E1,3.733865E1,4.730757E1,5.1267143E1,1.0324869E1,1.2828217E1,2.9873547E2,1.04552734E2,7.977745E0,6.2290344E0,0E0,0E0,0E0,0E0,0E0,0E0,0E0,0E0,0E0,0E0,0E0,0E0,0E0,0E0,0E0,0E0,0E0,0E0,0E0,0E0,0E0,0E0,0E0,0E0,0E0,0E0,0E0,0E0,0E0,0E0,0E0,0E0,0E0,0E0,0E0,0E0,0E0,0E0,0E0,0E0,0E0,0E0,0E0,0E0,0E0,0E0,0E0,0E0,0E0,0E0,0E0,0E0,0E0,0E0,0E0,0E0,0E0,0E0,0E0,0E0],"parents":[2147483647,0,0,1,1,2,2,3,3,4,4,5,5,6,6,7,7,8,8,9,9,10,10,11,11,12,12,13,13,14,14,15,15,16,16,17,17,18,18,19,19,20,20,21,21,22,22,23,23,24,24,25,25,26,26,27,27,28,28,29,29,30,30,32,32,33,33,34,34,36,36,37,37,38,38,39,39,40,40,41,41,42,42,43,43,44,44,45,45,46,46,47,47,48,48,49,49,50,50,51,51,52,52,53,53,54,54,55,55,56,56,57,57,58,58,59,59,60,60,61,61,62,62],"right_children":[2,4,6,8,10,12,14,16,18,20,22,24,26,28,30,32,34,36,38,40,42,44,46,48,50,52,54,56,58,60,62,-1,64,66,68,-1,70,72,74,76,78,80,82,84,86,88,90,92,94,96,98,100,102,104,106,108,110,112,114,116,118,120,122,-1,-1,-1,-1,-1,-1,-1,-1,-1,-1,-1,-1,-1,-1,-1,-1,-1,-1,-1,-1,-1,-1,-1,-1,-1,-1,-1,-1,-1,-1,-1,-1,-1,-1,-1,-1,-1,-1,-1,-1,-1,-1,-1,-1,-1,-1,-1,-1,-1,-1,-1,-1,-1,-1,-1,-1,-1,-1,-1,-1],"split_conditions":[-5.3797266E-3,-8.076838E-1,-1.0017467E-2,-5.5779046E-1,8.8906425E-1,-8.4845334E-2,-3.6177203E-2,9.6656674E-1,-4.1820884E-2,1.0416908E0,6.616863E-1,-1.041663E0,5.156319E-1,-5.3797234E-3,6.4288867E-1,-9.6007407E-1,-1.0014824E-2,-5.028474E-3,-1.00276E-2,-3.2035362E-2,-2.0846357E0,-4.2745522E-1,-4.9044755E-1,-5.6062317E-1,-2.942773E-1,-2.1017693E-2,4.8690698E-1,-2.4513178E-2,-4.9044755E-1,-5.379726E-3,5.151596E-1,-7.32045E-2,-5.382738E-2,-1.0814176E0,-5.028672E-3,-7.1836166E-2,-5.1547706E-2,-5.0286674E-3,8.5985297E-1,4.2995965E-1,-2.1553801E-2,1.1566766E-2,1.177881E-2,5.151596E-1,-1.3903364E-2,7.554437E-1,-1.1756103E0,-2.0637278E-2,5.288224E-3,-5.2407705E-3,-1.002575E-2,-5.323024E-1,4.6348312E-1,-5.215585E-3,-5.3045973E-2,1.0705976E0,-1.6778134E-2,-1.2635176E-1,1.1341447E0,8.400954E-1,5.156319E-1,7.263645E-1,-6.200511E-2,-6.384517E-2,-1.7724658E-3,1.5709868E-2,-7.220233E-2,-4.1537136E-2,6.847493E-2,1.360488E-3,-4.844514E-2,7.398328E-2,-6.106515E-2,7.235685E-2,8.545811E-3,-6.7660004E-2,-4.2216312E-2,-3.927533E-2,5.207674E-2,-6.871189E-2,4.643019E-2,-3.809896E-2,7.171197E-2,6.1219003E-2,-7.53277E-2,-5.3889513E-2,2.6703969E-2,-6.5051995E-2,-3.4960408E-3,-6.449993E-2,7.4663915E-2,7.391136E-2,-6.0402762E-2,-6.700972E-2,5.619145E-2,-2.3045843E-3,6.043118E-2,-5.7199955E-2,1.8935453E-2,-1.0150702E-1,3.712835E-2,5.5677503E-2,-1.8075205E-3,-5.2109357E-2,5.6993764E-2,4.584806E-2,-4.3084923E-2,4.6685357E-2,-6.0109753E-2,-7.0301786E-2,-7.104721E-3,3.0171543E-2,-6.9654636E-2,6.292094E-2,-3.1684298E-2,2.0291016E-2,6.871353E-2,6.944866E-2,5.3834725E-2,7.043787E-2,-1.4481405E-2,1.7390406E-2,-7.168804E-2],"split_indices":[11,51,40,2,36,33,3,36,3,17,35,37,15,11,4,37,40,44,40,52,36,49,2,2,49,5,2,8,2,11,51,0,25,17,44,0,28,44,46,31,41,30,3,51,5,42,17,24,30,38,40,46,51,38,28,36,5,34,46,17,15,4,28,0,0,0,0,0,0,0,0,0,0,0,0,0,0,0,0,0,0,0,0,0,0,0,0,0,0,0,0,0,0,0,0,0,0,0,0,0,0,0,0,0,0,0,0,0,0,0,0,0,0,0,0,0,0,0,0,0,0,0,0],"split_type":[0,0,0,0,0,0,0,0,0,0,0,0,0,0,0,0,0,0,0,0,0,0,0,0,0,0,0,0,0,0,0,0,0,0,0,0,0,0,0,0,0,0,0,0,0,0,0,0,0,0,0,0,0,0,0,0,0,0,0,0,0,0,0,0,0,0,0,0,0,0,0,0,0,0,0,0,0,0,0,0,0,0,0,0,0,0,0,0,0,0,0,0,0,0,0,0,0,0,0,0,0,0,0,0,0,0,0,0,0,0,0,0,0,0,0,0,0,0,0,0,0,0,0],"sum_hessian":[3.891185E4,2.1209125E4,1.7702727E4,2.065562E3,1.9143564E4,1.2744276E3,1.6428299E4,7.023253E2,1.3632368E3,1.7871223E4,1.2723414E3,4.203957E2,8.54032E2,3.7694894E2,1.605135E4,5.6360876E2,1.3871652E2,5.09356E1,1.3123013E3,1.7742637E4,1.2858615E2,6.5765E2,6.1469147E2,1.9501826E2,2.2537741E2,7.043164E2,1.4971556E2,1.9341354E2,1.8353539E2,1.5988382E4,6.296807E1,4.1486478E2,1.48744E2,3.426737E1,1.0444915E2,4.7864635E1,3.070965E0,6.890731E1,1.2433939E3,1.7501734E4,2.4090126E2,6.0241575E0,1.22562E2,3.7976114E2,2.7788885E2,5.720999E2,4.2591557E1,1.6111547E1,1.7890672E2,1.5294154E2,7.243586E1,4.2997673E1,6.613187E2,8.3460365E1,6.62552E1,6.520392E1,1.2820963E2,8.628545E0,1.7490685E2,1.331802E3,1.465658E4,1.8053286E1,4.4914783E1,1.0972723E2,3.9016773E1,2.4799309E0,3.1787437E1,2.6592553E0,1.01789894E2,1.1225948E0,1.9483701E0,3.7017353E1,3.1889957E1,1.2393005E3,4.0933466E0,1.5708716E4,1.7930188E3,9.72135E1,1.4368776E2,4.818879E0,1.2052783E0,1.7012657E0,1.2086073E2,3.6781992E2,1.1941223E1,1.2291906E2,1.549698E2,5.574138E2,1.4686069E1,2.2055496E1,2.053606E1,7.531614E0,8.579935E0,1.7722424E2,1.6824871E0,1.5975212E1,1.3696634E2,3.6419163E1,3.6016697E1,2.5374338E1,1.7623337E1,5.377987E2,1.2352E2,7.502869E1,8.431678E0,5.192259E1,1.4332617E1,5.3292744E1,1.1911174E1,6.0155148E1,6.805448E1,3.9945333E0,4.6340113E0,1.7181448E2,3.092354E0,5.2978625E2,8.020157E2,1.3470191E4,1.1863887E3,1.5081218E1,2.9720676E0,1.6873773E0,4.3227406E1],"tree_param":{"num_deleted":"0","num_feature":"53","num_nodes":"123","size_leaf_vector":"1"}},{"base_weights":[-5.7289994E-4,-1.0006951E0,1.2001919E0,-1.2231131E0,3.472719E-1,3.0907705E-1,1.2703763E0,1.3160815E0,-1.2643696E0,-9.3725926E-1,8.037452E-1,-2.3081698E-1,5.7386476E-1,3.8689303E-1,1.2915047E0,-6.415748E-2,1.3928045E0,-1.318908E0,-8.0054027E-1,-1.1151072E0,4.4788492E-1,1.0286416E0,-1.3304433E0,-1.049674E0,6.022174E-1,-7.4476093E-1,7.181729E-1,-2.958728E-1,1.0924475E0,1.2988724E0,-5.751266E-1,7.028865E-2,-4.4356663E-2,-7.167331E-1,-1.3445385E0,-1.3129017E0,-4.4288322E-1,-1.403916E0,-5.680091E-1,1.4352787E0,-6.67265E-1,1.8816194E-2,1.2114366E0,1.0042993E0,-1.3783785E0,-1.168772E0,6.780519E-1,1.0495079E0,-2.9902092E-1,-1.4291506E0,5.073162E-1,1.1435229E0,2.3238783E-1,1.629858E-1,-1.183898E0,-6.5597713E-1,1.1681077E0,9.496543E-1,1.3303709E0,1.0718251E0,-1.3181903E0,-4.6967562E-2,3.0543346E-2,-6.751765E-2,1.1807107E-2,-6.7303054E-2,-3.1381869E-3,-1.5476726E-4,-4.359339E-2,-7.190236E-2,-7.6330877E-3,-1.1322107E-2,-6.956752E-2,-2.9990165E-2,7.636195E-2,5.02613E-2,-6.446966E-2,-2.6678536E-2,5.2366395E-2,6.408223E-2,2.1888384E-4,6.6350005E-3,6.145346E-2,-6.999512E-2,4.872216E-2,-6.1849087E-2,4.6498884E-2,-6.93856E-2,6.358079E-2,-6.352316E-2,5.585423E-2,-5.0680805E-2,3.692093E-2,3.4004852E-2,-8.616187E-2,4.0414494E-2,-7.2272085E-2,-3.677043E-2,6.0028683E-2,-3.520624E-2,3.6998585E-2,3.5417534E-2,-5.002996E-2,-6.977191E-2,6.5347673E-3,4.523197E-2,-7.471835E-2,7.021646E-2,3.5995252E-2,1.882009E-2,6.66781E-2,6.783581E-2,5.1625725E-2,6.608782E-2,-4.7087227E-3,2.911051E-2,-6.986834E-2],"categories":[],"categories_nodes":[],"categories_segments":[],"categories_sizes":[],"default_left":[0,0,0,0,0,0,0,0,0,0,0,0,0,0,0,0,0,0,0,0,0,0,0,0,0,0,0,0,0,0,0,0,0,0,0,0,0,0,0,0,0,0,0,0,0,0,0,0,0,0,0,0,0,0,0,0,0,0,0,0,0,0,0,0,0,0,0,0,0,0,0,0,0,0,0,0,0,0,0,0,0,0,0,0,0,0,0,0,0,0,0,0,0,0,0,0,0,0,0,0,0,0,0,0,0,0,0,0,0,0,0,0,0,0,0,0,0],"id":11,"left_children":[1,3,5,7,9,11,13,15,17,19,21,23,25,27,29,-1,31,33,35,37,39,41,43,45,47,49,51,53,55,57,59,-1,-1,61,63,65,67,69,71,73,75,77,79,81,83,85,87,89,91,93,95,97,99,101,103,105,107,109,111,113,115,-1,-1,-1,-1,-1,-1,-1,-1,-1,-1,-1,-1,-1,-1,-1,-1,-1,-1,-1,-1,-1,-1,-1,-1,-1,-1,-1,-1,-1,-1,-1,-1,-1,-1,-1,-1,-1,-1,-1,-1,-1,-1,-1,-1,-1,-1,-1,-1,-1,-1,-1,-1,-1,-1,-1,-1],"loss_changes":[4.55235E4,6.2010254E3,1.0769473E3,1.8614023E3,1.7187561E3,1.8011249E2,2.975664E2,5.8486847E1,4.4085742E2,1.898576E2,1.0392126E3,2.8371243E2,1.6132602E2,1.8067197E2,2.1521094E2,0E0,9.426819E0,2.4026758E2,3.366942E2,1.06882996E2,9.8049866E1,3.6117212E2,2.4503174E1,4.3929993E1,8.349671E1,7.257074E1,1.5721506E2,7.804109E1,2.5150513E1,1.6960547E2,7.72913E1,0E0,0E0,1.8979398E2,1.380957E2,3.1259155E1,2.047733E2,1.880011E1,6.637425E1,9.727905E0,4.509374E1,1.7152664E2,1.4040039E2,7.6441E-1,1.1636261E1,2.9278748E1,1.9117498E1,2.3074417E1,5.20662E1,3.4961662E1,1.9017616E1,4.441382E1,1.7024814E2,8.119926E1,1.8315956E1,1.2193422E1,1.773352E1,2.8310022E2,1.1038672E2,5.90287E0,7.3098755E0,0E0,0E0,0E0,0E0,0E0,0E0,0E0,0E0,0E0,0E0,0E0,0E0,0E0,0E0,0E0,0E0,0E0,0E0,0E0,0E0,0E0,0E0,0E0,0E0,0E0,0E0,0E0,0E0,0E0,0E0,0E0,0E0,0E0,0E0,0E0,0E0,0E0,0E0,0E0,0E0,0E0,0E0,0E0,0E0,0E0,0E0,0E0,0E0,0E0,0E0,0E0,0E0,0E0,0E0,0E0,0E0],"parents":[2147483647,0,0,1,1,2,2,3,3,4,4,5,5,6,6,7,7,8,8,9,9,10,10,11,11,12,12,13,13,14,14,16,16,17,17,18,18,19,19,20,20,21,21,22,22,23,23,24,24,25,25,26,26,27,27,28,28,29,29,30,30,33,33,34,34,35,35,36,36,37,37,38,38,39,39,40,40,41,41,42,42,43,43,44,44,45,45,46,46,47,47,48,48,49,49,50,50,51,51,52,52,53,53,54,54,55,55,56,56,57,57,58,58,59,59,60,60],"right_children":[2,4,6,8,10,12,14,16,18,20,22,24,26,28,30,-1,32,34,36,38,40,42,44,46,48,50,52,54,56,58,60,-1,-1,62,64,66,68,70,72,74,76,78,80,82,84,86,88,90,92,94,96,98,100,102,104,106,108,110,112,114,116,-1,-1,-1,-1,-1,-1,-1,-1,-1,-1,-1,-1,-1,-1,-1,-1,-1,-1,-1,-1,-1,-1,-1,-1,-1,-1,-1,-1,-1,-1,-1,-1,-1,-1,-1,-1,-1,-1,-1,-1,-1,-1,-1,-1,-1,-1,-1,-1,-1,-1,-1,-1,-1,-1,-1,-1],"split_conditions":[-5.3797266E-3,-3.4341644E-3,-1.0017467E-2,-2.8180353E-2,-1.0018349E-2,-8.4845334E-2,-3.6177203E-2,-3.4469045E-3,4.2995965E-1,-4.9044755E-1,1.0895057E0,-4.186404E-1,-4.9100914E-3,-5.3797234E-3,6.4288867E-1,-6.415748E-2,-6.960437E-3,-9.637864E-1,-3.4457368E-3,-6.3217126E-2,-2.3363542E-2,-1.1727142E0,-1.8777107E0,-1.0027028E-2,-2.942773E-1,-5.0284485E-3,-2.0887744E-2,4.0674064E-1,-5.5779046E-1,-5.379726E-3,5.151596E-1,7.028865E-2,-4.4356663E-2,-3.4434798E-3,9.2273253E-1,6.81476E-2,-5.266976E-1,5.654089E-2,6.189062E-1,-1.0677699E0,-5.028663E-3,-4.006578E-3,8.823231E-1,-1.3394938E-2,9.2273253E-1,1.5758349E-3,-1.175844E0,-3.4445757E-3,-1.0022578E-2,-2.8035762E-2,-1.1061236E-2,-7.5619406E-1,-3.9195633E-3,5.054473E-1,-3.775012E-3,-8.837332E-1,-2.3212183E-2,8.400954E-1,5.156319E-1,7.263645E-1,-6.200511E-2,-4.6967562E-2,3.0543346E-2,-6.751765E-2,1.1807107E-2,-6.7303054E-2,-3.1381869E-3,-1.5476726E-4,-4.359339E-2,-7.190236E-2,-7.6330877E-3,-1.1322107E-2,-6.956752E-2,-2.9990165E-2,7.636195E-2,5.02613E-2,-6.446966E-2,-2.6678536E-2,5.2366395E-2,6.408223E-2,2.1888384E-4,6.6350005E-3,6.145346E-2,-6.999512E-2,4.872216E-2,-6.1849087E-2,4.6498884E-2,-6.93856E-2,6.358079E-2,-6.352316E-2,5.585423E-2,-5.0680805E-2,3.692093E-2,3.4004852E-2,-8.616187E-2,4.0414494E-2,-7.2272085E-2,-3.677043E-2,6.0028683E-2,-3.520624E-2,3.6998585E-2,3.5417534E-2,-5.002996E-2,-6.977191E-2,6.5347673E-3,4.523197E-2,-7.471835E-2,7.021646E-2,3.5995252E-2,1.882009E-2,6.66781E-2,6.783581E-2,5.1625725E-2,6.608782E-2,-4.7087227E-3,2.911051E-2,-6.986834E-2],"split_indices":[11,39,40,8,40,33,3,39,31,2,35,35,43,11,4,0,30,49,39,28,24,17,46,40,49,44,8,20,2,11,51,0,0,39,17,5,36,31,4,51,44,43,46,3,17,30,17,39,40,8,8,31,43,46,43,21,8,17,15,4,28,0,0,0,0,0,0,0,0,0,0,0,0,0,0,0,0,0,0,0,0,0,0,0,0,0,0,0,0,0,0,0,0,0,0,0,0,0,0,0,0,0,0,0,0,0,0,0,0,0,0,0,0,0,0,0,0],"split_type":[0,0,0,0,0,0,0,0,0,0,0,0,0,0,0,0,0,0,0,0,0,0,0,0,0,0,0,0,0,0,0,0,0,0,0,0,0,0,0,0,0,0,0,0,0,0,0,0,0,0,0,0,0,0,0,0,0,0,0,0,0,0,0,0,0,0,0,0,0,0,0,0,0,0,0,0,0,0,0,0,0,0,0,0,0,0,0,0,0,0,0,0,0,0,0,0,0,0,0,0,0,0,0,0,0,0,0,0,0,0,0,0,0,0,0,0,0],"sum_hessian":[3.7905453E4,2.068063E4,1.722482E4,1.7751656E4,2.9289746E3,1.2579775E3,1.5966844E4,2.833212E2,1.7468334E4,7.676706E2,2.1613042E3,4.1399094E2,8.4398663E2,3.7337836E2,1.5593466E4,7.672347E0,2.7564886E2,1.5628809E4,1.8395258E3,6.8049255E2,8.7178055E1,1.9557312E3,2.0557294E2,2.0864084E2,2.0535008E2,8.284291E1,7.611437E2,1.9004868E2,1.8332967E2,1.5532463E4,6.100281E1,2.7447107E2,1.1777971E0,6.392353E2,1.4989573E4,7.551151E2,1.0844106E3,4.4435492E2,2.3613765E2,4.6085354E1,4.1092697E1,2.999274E2,1.6558037E3,3.7343721E0,2.0183856E2,1.9548868E2,1.315217E1,1.3712802E2,6.822206E1,5.3472977E1,2.9369934E1,4.0509308E2,3.560506E2,1.2584089E2,6.4207794E1,7.286089E0,1.7604358E2,1.2876559E3,1.4244807E4,1.882842E1,4.2174393E1,5.476887E2,9.154655E1,1.4934781E4,5.4792355E1,7.355289E2,1.9586248E1,5.3596027E2,5.484504E2,4.3241055E2,1.1944368E1,1.6780003E2,6.833761E1,1.7536923E0,4.433166E1,1.0974294E1,3.0118404E1,1.9544186E2,1.0448553E2,1.5647303E3,9.10734E1,1.0916439E0,2.6427283E0,2.004102E2,1.4283669E0,1.8973293E2,5.7557454E0,2.6369462E0,1.0515224E1,3.377435E0,1.3375058E2,4.0410206E1,2.7811853E1,6.382668E0,4.709031E1,2.595555E1,3.414385E0,1.1587146E1,3.9350595E2,1.2501174E2,2.3103886E2,8.594858E1,3.9892315E1,5.5254864E1,8.9529295E0,2.5186815E0,4.7674074E0,1.1388709E2,6.2156494E1,5.172607E2,7.703952E2,1.3083982E4,1.1608243E3,1.5394943E1,3.433477E0,1.4327214E0,4.074167E1],"tree_param":{"num_deleted":"0","num_feature":"53","num_nodes":"117","size_leaf_vector":"1"}},{"base_weights":[1.8191526E-3,-9.74316E-1,1.1744499E0,-1.1809773E0,7.8587264E-1,3.2805192E-1,1.2416838E0,1.2214663E0,-1.2016052E0,1.9624764E-1,1.2877696E0,2.3805708E-2,7.933547E-1,1.2499533E0,-9.5718545E-1,-6.497239E-2,1.3495224E0,-1.2227575E0,4.730489E-1,5.694411E-1,-8.630751E-1,4.47355E-1,1.3520992E0,-6.195806E-1,4.980482E-1,1.0806607E0,-6.5350646E-1,1.1150218E0,1.3587837E0,-1.3224123E0,2.281759E-1,-4.7889244E-2,1.3781995E0,-1.2443382E0,2.1606824E-1,-6.5442467E-1,1.0735817E0,-8.2210976E-1,9.6565044E-1,-1.1810648E0,8.5417324E-1,1.4354175E0,-9.218348E-1,1.3578715E0,-5.4242756E-2,1.4823647E-1,-1.2800647E0,-3.448409E-2,9.1262746E-1,1.1511383E0,-1.1906501E0,-1.4109812E0,1.1363542E0,3.626403E-1,1.2042097E0,1.3637704E0,1.0699964E0,-1.5142398E0,-1.7842555E-1,9.4791454E-1,-7.448714E-1,2.9398093E-2,6.929545E-2,-3.9699443E-2,-6.48E-2,-4.333324E-2,3.9245695E-2,-5.1870447E-2,2.3694877E-3,-2.6612396E-3,6.4508654E-2,-5.7354666E-2,4.4093072E-2,-3.7085142E-2,5.433615E-2,3.2386356E-3,-6.443595E-2,6.869628E-2,-6.512065E-2,-5.632286E-2,7.685342E-2,4.1361067E-2,-6.931026E-2,6.8120085E-2,-4.0838804E-2,-4.086993E-2,3.472955E-2,-6.787633E-2,6.0054135E-2,1.2167593E-2,-5.863113E-2,5.1758803E-2,4.295107E-4,6.496396E-2,2.946481E-2,-6.854651E-2,4.4537146E-4,-1.0784096E-2,-7.20694E-2,6.479465E-2,-5.4966766E-2,-1.2801014E-2,4.9888678E-2,-1.3922728E-2,6.1204493E-2,6.826844E-2,3.0386737E-2,6.1905116E-2,1.1619572E-2,-7.911491E-2,-6.291305E-3,5.5574607E-2,-5.5321854E-2,-1.7899496E-2,5.9859693E-2,-7.1477674E-2,6.400508E-3],"categories":[],"categories_nodes":[],"categories_segments":[],"categories_sizes":[],"default_left":[0,0,0,0,0,0,0,0,0,0,0,0,0,0,0,0,0,0,0,0,0,0,0,0,0,0,0,0,0,0,0,0,0,0,0,0,0,0,0,0,0,0,0,0,0,0,0,0,0,0,0,0,0,0,0,0,0,0,0,0,0,0,0,0,0,0,0,0,0,0,0,0,0,0,0,0,0,0,0,0,0,0,0,0,0,0,0,0,0,0,0,0,0,0,0,0,0,0,0,0,0,0,0,0,0,0,0,0,0,0,0,0,0,0,0,0,0],"id":12,"left_children":[1,3,5,7,9,11,13,15,17,19,21,23,25,27,29,-1,31,33,35,37,39,41,43,45,47,49,51,53,55,57,59,-1,61,63,65,67,69,71,73,75,77,79,81,83,-1,85,87,89,91,93,95,97,99,101,103,105,107,109,111,113,115,-1,-1,-1,-1,-1,-1,-1,-1,-1,-1,-1,-1,-1,-1,-1,-1,-1,-1,-1,-1,-1,-1,-1,-1,-1,-1,-1,-1,-1,-1,-1,-1,-1,-1,-1,-1,-1,-1,-1,-1,-1,-1,-1,-1,-1,-1,-1,-1,-1,-1,-1,-1,-1,-1,-1,-1],"loss_changes":[4.2437152E4,7.3607227E3,9.5801953E2,8.987969E2,6.290333E2,1.7563177E2,2.8490234E2,5.1675003E1,6.365332E2,3.875047E2,6.1487427E1,2.2953094E2,2.0460852E2,2.267461E2,2.585439E1,0E0,1.1090088E1,5.507871E2,1.5281494E2,4.002576E2,1.4049161E2,1.1382066E2,1.6473267E1,1.6207764E2,9.563388E1,6.694183E1,1.1262543E2,4.6562988E2,1.0924805E1,9.663788E0,1.1039733E1,0E0,7.6171875E-2,4.05375E2,1.6256877E2,2.1201504E1,3.593553E1,9.022928E1,1.1747803E2,2.9045471E1,4.717366E1,1.4411545E1,2.9951368E1,1.1597046E1,0E0,7.89203E1,3.463214E1,6.0528484E1,2.6969711E1,3.234442E1,2.7845058E0,1.7965546E0,1.0307423E1,2.9004373E2,1.8335449E2,9.380859E0,2.092041E1,3.4515228E0,1.0368385E1,3.332881E0,4.267068E0,0E0,0E0,0E0,0E0,0E0,0E0,0E0,0E0,0E0,0E0,0E0,0E0,0E0,0E0,0E0,0E0,0E0,0E0,0E0,0E0,0E0,0E0,0E0,0E0,0E0,0E0,0E0,0E0,0E0,0E0,0E0,0E0,0E0,0E0,0E0,0E0,0E0,0E0,0E0,0E0,0E0,0E0,0E0,0E0,0E0,0E0,0E0,0E0,0E0,0E0,0E0,0E0,0E0,0E0,0E0,0E0],"parents":[2147483647,0,0,1,1,2,2,3,3,4,4,5,5,6,6,7,7,8,8,9,9,10,10,11,11,12,12,13,13,14,14,16,16,17,17,18,18,19,19,20,20,21,21,22,22,23,23,24,24,25,25,26,26,27,27,28,28,29,29,30,30,32,32,33,33,34,34,35,35,36,36,37,37,38,38,39,39,40,40,41,41,42,42,43,43,45,45,46,46,47,47,48,48,49,49,50,50,51,51,52,52,53,53,54,54,55,55,56,56,57,57,58,58,59,59,60,60],"right_children":[2,4,6,8,10,12,14,16,18,20,22,24,26,28,30,-1,32,34,36,38,40,42,44,46,48,50,52,54,56,58,60,-1,62,64,66,68,70,72,74,76,78,80,82,84,-1,86,88,90,92,94,96,98,100,102,104,106,108,110,112,114,116,-1,-1,-1,-1,-1,-1,-1,-1,-1,-1,-1,-1,-1,-1,-1,-1,-1,-1,-1,-1,-1,-1,-1,-1,-1,-1,-1,-1,-1,-1,-1,-1,-1,-1,-1,-1,-1,-1,-1,-1,-1,-1,-1,-1,-1,-1,-1,-1,-1,-1,-1,-1,-1,-1,-1,-1],"split_conditions":[-5.3797266E-3,1.5820426E0,-1.0017467E-2,-2.8180353E-2,-4.9044755E-1,1.5820426E0,1.5816294E0,-9.2547274E-1,-3.1962223E-2,1.9189795E-4,-1.0022578E-2,-4.217091E-3,-8.981744E-3,8.843235E-1,-1.119113E0,-6.497239E-2,-9.153596E-2,-2.1552237E-2,-2.1553801E-2,-1.00276E-2,3.8489122E-2,-1.9644773E-2,2.5834785E0,-1.7500406E-2,-1.002575E-2,1.0708667E0,-1.0027028E-2,-2.4906414E-2,1.5030874E0,-2.380628E-3,-6.244972E-2,-4.7889244E-2,-5.0286385E-3,-3.848712E-1,-4.621045E-3,-4.2581385E-1,-4.5257765E-3,-1.5282723E-1,-5.006451E-3,-1.3743371E-1,3.6257628E-1,-1.0508212E0,-2.2330083E-2,3.3774722E0,-5.4242756E-2,-6.3582554E-2,7.118286E-2,-1.4956492E-1,8.185082E-1,6.767653E-3,-5.9627986E-1,-5.028671E-3,-6.1365608E-2,-5.3797183E-3,-2.0846357E0,1.5256039E0,-1.5282723E-1,2.3618014E-1,1.7365537E0,-2.0512016E-2,-4.4183657E-3,2.9398093E-2,6.929545E-2,-3.9699443E-2,-6.48E-2,-4.333324E-2,3.9245695E-2,-5.1870447E-2,2.3694877E-3,-2.6612396E-3,6.4508654E-2,-5.7354666E-2,4.4093072E-2,-3.7085142E-2,5.433615E-2,3.2386356E-3,-6.443595E-2,6.869628E-2,-6.512065E-2,-5.632286E-2,7.685342E-2,4.1361067E-2,-6.931026E-2,6.8120085E-2,-4.0838804E-2,-4.086993E-2,3.472955E-2,-6.787633E-2,6.0054135E-2,1.2167593E-2,-5.863113E-2,5.1758803E-2,4.295107E-4,6.496396E-2,2.946481E-2,-6.854651E-2,4.4537146E-4,-1.0784096E-2,-7.20694E-2,6.479465E-2,-5.4966766E-2,-1.2801014E-2,4.9888678E-2,-1.3922728E-2,6.1204493E-2,6.826844E-2,3.0386737E-2,6.1905116E-2,1.1619572E-2,-7.911491E-2,-6.291305E-3,5.5574607E-2,-5.5321854E-2,-1.7899496E-2,5.9859693E-2,-7.1477674E-2,6.400508E-3],"split_indices":[11,16,40,8,2,16,46,37,52,47,40,43,9,42,22,0,45,41,41,40,24,6,2,26,40,50,40,3,42,33,28,0,44,45,30,2,43,13,43,37,22,46,8,45,0,28,26,34,22,3,31,44,28,11,36,37,13,28,46,24,43,0,0,0,0,0,0,0,0,0,0,0,0,0,0,0,0,0,0,0,0,0,0,0,0,0,0,0,0,0,0,0,0,0,0,0,0,0,0,0,0,0,0,0,0,0,0,0,0,0,0,0,0,0,0,0,0],"split_type":[0,0,0,0,0,0,0,0,0,0,0,0,0,0,0,0,0,0,0,0,0,0,0,0,0,0,0,0,0,0,0,0,0,0,0,0,0,0,0,0,0,0,0,0,0,0,0,0,0,0,0,0,0,0,0,0,0,0,0,0,0,0,0,0,0,0,0,0,0,0,0,0,0,0,0,0,0,0,0,0,0,0,0,0,0,0,0,0,0,0,0,0,0,0,0,0,0,0,0,0,0,0,0,0,0,0,0,0,0,0,0,0,0,0,0,0,0],"sum_hessian":[3.7072473E4,2.0231389E4,1.6841082E4,1.8105926E4,2.1254624E3,1.2397633E3,1.5601319E4,1.5364238E2,1.7952283E4,9.7795667E2,1.1475057E3,7.5025037E2,4.8951294E2,1.5543296E4,5.802315E1,6.9851465E0,1.4665724E2,1.7728627E4,2.2365775E2,7.2352527E2,2.5443144E2,8.215619E1,1.0653495E3,3.1822305E2,4.320273E2,4.0862463E2,8.0888306E1,6.9445117E3,8.598784E3,4.4267944E1,1.3755209E1,1.402667E0,1.4525458E2,1.7466781E4,2.6184528E2,7.7696434E1,1.4596132E2,1.6011183E2,5.634134E2,2.14942E2,3.948944E1,4.7691624E1,3.4464565E1,1.0632738E3,2.0757542E0,1.4751337E2,1.7070969E2,1.895127E2,2.425146E2,3.9680518E2,1.18194685E1,5.6984123E1,2.3904179E1,7.365025E2,6.2080093E3,8.449165E3,1.4961905E2,3.763374E1,6.634204E0,7.9216166E0,5.8335924E0,2.1499128E0,1.4310466E2,1.7991854E3,1.5667596E4,9.0005844E1,1.7183943E2,4.9956623E1,2.773981E1,2.3654434E1,1.22306885E2,1.3474072E2,2.537111E1,3.6968018E1,5.264454E2,1.7127737E1,1.9781427E2,3.211292E1,7.376522E0,1.4353464E0,4.625628E1,7.066633E0,2.7397932E1,1.0614363E3,1.8375612E0,5.3124413E1,9.4388954E1,1.659806E2,4.729085E0,1.5295932E2,3.655338E1,2.134367E2,2.9077902E1,3.129715E2,8.383367E1,1.0151019E1,1.668449E0,1.6144065E0,5.5369717E1,2.2704357E1,1.1998217E0,3.733918E2,3.631107E2,8.196598E1,6.126043E3,8.430536E3,1.8629358E1,1.242118E2,2.5407246E1,3.5742065E1,1.8916748E0,2.6931145E0,3.9410896E0,1.1998479E0,6.7217684E0,2.9118319E0,2.9217606E0],"tree_param":{"num_deleted":"0","num_feature":"53","num_nodes":"117","size_leaf_vector":"1"}},{"base_weights":[1.1486085E-3,-9.5095503E-1,1.1465706E0,-1.1534745E0,7.529273E-1,-2.2505109E-1,1.1825584E0,-4.2569935E-1,-1.2281817E0,1.018006E0,-7.923375E-1,-7.43902E-1,1.1887407E0,1.0242481E0,1.3211144E0,-6.6586417E-1,1.2806791E0,-1.2481117E0,5.3416616E-1,-2.1157001E-1,1.1751089E0,-8.887097E-1,7.299846E-2,-1.2387019E0,-1.3796696E-1,-7.279893E-2,1.2645918E0,1.1024365E0,-1.3832337E-1,1.3242985E0,-2.6380113E-1,-9.44616E-1,7.1345437E-1,1.4652462E0,-6.74263E-2,-1.2657535E0,6.008025E-2,-5.6219304E-1,1.0458423E0,1.2984166E0,-5.349995E-1,1.0626258E-1,1.2401503E0,-1.10535E0,2.2415107E-1,-4.5666775E-1,-1.3551112E0,-1.3014723E0,8.3642435E-1,1.3375427E0,-7.857777E-2,3.4732515E-1,1.1891984E0,-9.724677E-1,5.40405E-1,1.2504258E0,1.350572E0,-1.2400113E0,3.9540863E-1,-5.9644092E-2,-2.1627955E-2,7.931311E-2,-3.0581653E-2,8.718591E-2,6.46131E-2,-3.541797E-2,-6.491251E-2,-4.5013443E-2,3.0148504E-2,2.4693338E-2,-4.557089E-2,-2.8891379E-2,6.4439885E-2,-5.989169E-2,7.466092E-2,3.49289E-2,-4.9904518E-2,5.003656E-2,-5.542585E-2,6.28969E-2,-4.2390656E-2,-5.854174E-2,5.7162393E-2,-6.6409275E-2,3.0651221E-2,2.8021568E-3,-6.6047974E-2,3.827992E-2,-6.890356E-2,-6.8059266E-2,4.0048447E-2,-4.036596E-2,5.510583E-2,-8.436776E-3,6.7761116E-2,-7.081299E-2,3.8582277E-2,-1.0210531E-2,4.767267E-2,6.1981704E-2,2.9361252E-2,-8.061818E-2,-8.489792E-3,-2.544195E-4,5.5958945E-2,6.5970264E-2,4.9054787E-2,6.756186E-2,-1.3050332E-2,6.8568386E-4,-8.415399E-2,3.882439E-2,-6.511354E-2],"categories":[],"categories_nodes":[],"categories_segments":[],"categories_sizes":[],"default_left":[0,0,0,0,0,0,0,0,0,0,0,0,0,0,0,0,0,0,0,0,0,0,0,0,0,0,0,0,0,0,0,0,0,0,0,0,0,0,0,0,0,0,0,0,0,0,0,0,0,0,0,0,0,0,0,0,0,0,0,0,0,0,0,0,0,0,0,0,0,0,0,0,0,0,0,0,0,0,0,0,0,0,0,0,0,0,0,0,0,0,0,0,0,0,0,0,0,0,0,0,0,0,0,0,0,0,0,0,0,0,0,0,0],"id":13,"left_children":[1,3,5,7,9,11,13,15,17,19,21,23,25,27,29,31,33,35,37,39,41,43,-1,45,47,-1,49,51,53,55,57,59,61,63,-1,65,67,69,71,73,75,77,79,81,83,85,87,89,91,93,95,97,99,101,103,105,107,109,111,-1,-1,-1,-1,-1,-1,-1,-1,-1,-1,-1,-1,-1,-1,-1,-1,-1,-1,-1,-1,-1,-1,-1,-1,-1,-1,-1,-1,-1,-1,-1,-1,-1,-1,-1,-1,-1,-1,-1,-1,-1,-1,-1,-1,-1,-1,-1,-1,-1,-1,-1,-1,-1,-1],"loss_changes":[3.9269645E4,6.786211E3,8.0708203E2,9.550449E2,8.567031E2,3.080403E2,3.480078E2,6.7200146E2,5.604824E2,3.4486182E2,6.783006E1,9.185112E1,2.446933E1,6.762783E2,4.3195312E1,5.529123E2,1.00194214E2,3.638125E2,1.0096368E2,9.981673E1,1.0984961E2,7.126384E1,0E0,1.4751007E1,1.5878165E2,0E0,1.0902054E1,4.5619434E2,2.6640164E2,1.4756836E1,1.198129E1,1.5143274E2,2.8089767E2,6.8801575E0,0E0,2.8075977E2,1.1037749E2,2.1687782E1,4.9006668E1,1.9341251E1,